{"learner":{"attributes":{"scikit_learn":"{\"_estimator_type\": \"regressor\"}"},"feature_names":["Process Stage","Technology","Time Period","Location","Functional Unit","Raw Material Type","Raw Material Quantity (kg or unit)","Energy Input Type","Energy Input Quantity (MJ)","Transport Mode","Transport Distance (km)","Fuel Type","Emissions to Air CO2 (kg)","Emissions to Air SOx (kg)","Emissions to Air NOx (kg)","Emissions to Air Particulate Matter (kg)","Emissions to Water BOD (kg)","Emissions to Water Heavy Metals (kg)","Greenhouse Gas Emissions (kg CO2-eq)","End-of-Life Treatment","Energy_per_Material","Total_Air_Emissions","Total_Water_Emissions","Circularity_Score","Transport_Intensity","GHG_per_Material","Time_Period_Numeric"],"feature_types":["c","c","c","c","c","c","float","c","float","c","float","c","float","float","float","float","float","float","float","c","float","float","float","float","float","float","int"],"gradient_booster":{"model":{"gbtree_model_param":{"num_parallel_tree":"1","num_trees":"200"},"iteration_indptr":[0,1,2,3,4,5,6,7,8,9,10,11,12,13,14,15,16,17,18,19,20,21,22,23,24,25,26,27,28,29,30,31,32,33,34,35,36,37,38,39,40,41,42,43,44,45,46,47,48,49,50,51,52,53,54,55,56,57,58,59,60,61,62,63,64,65,66,67,68,69,70,71,72,73,74,75,76,77,78,79,80,81,82,83,84,85,86,87,88,89,90,91,92,93,94,95,96,97,98,99,100,101,102,103,104,105,106,107,108,109,110,111,112,113,114,115,116,117,118,119,120,121,122,123,124,125,126,127,128,129,130,131,132,133,134,135,136,137,138,139,140,141,142,143,144,145,146,147,148,149,150,151,152,153,154,155,156,157,158,159,160,161,162,163,164,165,166,167,168,169,170,171,172,173,174,175,176,177,178,179,180,181,182,183,184,185,186,187,188,189,190,191,192,193,194,195,196,197,198,199,200],"tree_info":[0,0,0,0,0,0,0,0,0,0,0,0,0,0,0,0,0,0,0,0,0,0,0,0,0,0,0,0,0,0,0,0,0,0,0,0,0,0,0,0,0,0,0,0,0,0,0,0,0,0,0,0,0,0,0,0,0,0,0,0,0,0,0,0,0,0,0,0,0,0,0,0,0,0,0,0,0,0,0,0,0,0,0,0,0,0,0,0,0,0,0,0,0,0,0,0,0,0,0,0,0,0,0,0,0,0,0,0,0,0,0,0,0,0,0,0,0,0,0,0,0,0,0,0,0,0,0,0,0,0,0,0,0,0,0,0,0,0,0,0,0,0,0,0,0,0,0,0,0,0,0,0,0,0,0,0,0,0,0,0,0,0,0,0,0,0,0,0,0,0,0,0,0,0,0,0,0,0,0,0,0,0,0,0,0,0,0,0,0,0,0,0,0,0,0,0,0,0,0,0],"trees":[{"base_weights":[-0E0,-1.6310013E1,1.3709055E1,-2.3552658E1,-9.154423E0,6.8834395E0,2.1918156E1,-2.6633291E1,-1.9463263E1,-1.2376247E1,-5.0759554E0,2.7748616E0,1.0390955E1,1.838386E1,2.8461082E1,-8.3501095E-1,-7.538795E-1,-6.3132536E-1,-5.3106105E-1,-4.4015962E-1,-3.256363E-1,-1.9617201E-1,-9.186921E-2,9.109963E-3,1.3309276E-1,2.6395175E-1,3.8572803E-1,4.7637624E-1,6.1567754E-1,7.6346254E-1,9.590655E-1],"categories":[],"categories_nodes":[],"categories_segments":[],"categories_sizes":[],"default_left":[0,0,0,0,0,0,0,0,0,0,0,0,0,0,0,0,0,0,0,0,0,0,0,0,0,0,0,0,0,0,0],"id":0,"left_children":[1,3,5,7,9,11,13,15,17,19,21,23,25,27,29,-1,-1,-1,-1,-1,-1,-1,-1,-1,-1,-1,-1,-1,-1,-1,-1],"loss_changes":[1.6774086E6,1.7733494E5,2.2823325E5,2.0918625E4,2.2602125E4,3.206293E4,4.2252688E4,1.0429375E3,1.6700938E3,3.202375E3,2.226961E3,4.2150923E3,4.602578E3,6.12E3,6.0173125E3,0E0,0E0,0E0,0E0,0E0,0E0,0E0,0E0,0E0,0E0,0E0,0E0,0E0,0E0,0E0,0E0],"parents":[2147483647,0,0,1,1,2,2,3,3,4,4,5,5,6,6,7,7,8,8,9,9,10,10,11,11,12,12,13,13,14,14],"right_children":[2,4,6,8,10,12,14,16,18,20,22,24,26,28,30,-1,-1,-1,-1,-1,-1,-1,-1,-1,-1,-1,-1,-1,-1,-1,-1],"split_conditions":[4.964E1,3.58E1,6.642333E1,2.8023333E1,4.3366665E1,5.7896667E1,7.601E1,2.2933332E1,3.248E1,3.9013332E1,4.6866665E1,5.3256668E1,6.315E1,7.053E1,8.09E1,-8.3501095E-1,-7.538795E-1,-6.3132536E-1,-5.3106105E-1,-4.4015962E-1,-3.256363E-1,-1.9617201E-1,-9.186921E-2,9.109963E-3,1.3309276E-1,2.6395175E-1,3.8572803E-1,4.7637624E-1,6.1567754E-1,7.6346254E-1,9.590655E-1],"split_indices":[23,23,23,23,23,23,23,23,23,23,23,23,23,23,23,0,0,0,0,0,0,0,0,0,0,0,0,0,0,0,0],"split_type":[0,0,0,0,0,0,0,0,0,0,0,0,0,0,0,0,0,0,0,0,0,0,0,0,0,0,0,0,0,0,0],"sum_hessian":[7.5E3,3.425E3,4.075E3,1.701E3,1.724E3,2.226E3,1.849E3,9.67E2,7.34E2,9.62E2,7.62E2,1.026E3,1.2E3,1.203E3,6.46E2,5.28E2,4.39E2,3.81E2,3.53E2,3.8E2,5.82E2,4.4E2,3.22E2,4.13E2,6.13E2,7.32E2,4.68E2,5.58E2,6.45E2,3.52E2,2.94E2],"tree_param":{"num_deleted":"0","num_feature":"27","num_nodes":"31","size_leaf_vector":"1"}},{"base_weights":[-1.2250208E-5,-1.582183E1,1.3298674E1,-2.28477E1,-8.880406E0,7.2371492E0,2.200071E1,-2.5941729E1,-1.9014925E1,-1.2005757E1,-4.924059E0,3.1022568E0,1.1001366E1,1.8445444E1,2.7609917E1,-8.10008E-1,-7.3547757E-1,-6.1666024E-1,-5.151743E-1,-4.1567066E-1,-3.0685613E-1,-1.9030024E-1,-8.912166E-2,2.6604839E-2,1.5554443E-1,2.67316E-1,3.8904616E-1,4.9295223E-1,6.095171E-1,7.619573E-1,9.6463585E-1],"categories":[],"categories_nodes":[],"categories_segments":[],"categories_sizes":[],"default_left":[0,0,0,0,0,0,0,0,0,0,0,0,0,0,0,0,0,0,0,0,0,0,0,0,0,0,0,0,0,0,0],"id":1,"left_children":[1,3,5,7,9,11,13,15,17,19,21,23,25,27,29,-1,-1,-1,-1,-1,-1,-1,-1,-1,-1,-1,-1,-1,-1,-1,-1],"loss_changes":[1.5784915E6,1.6687838E5,2.1483712E5,1.968575E4,2.1268766E4,3.738183E4,3.2849438E4,7.50125E2,1.8115625E3,3.0219688E3,2.0955176E3,5.2867754E3,5.0555625E3,3.5334688E3,5.6797188E3,0E0,0E0,0E0,0E0,0E0,0E0,0E0,0E0,0E0,0E0,0E0,0E0,0E0,0E0,0E0,0E0],"parents":[2147483647,0,0,1,1,2,2,3,3,4,4,5,5,6,6,7,7,8,8,9,9,10,10,11,11,12,12,13,13,14,14],"right_children":[2,4,6,8,10,12,14,16,18,20,22,24,26,28,30,-1,-1,-1,-1,-1,-1,-1,-1,-1,-1,-1,-1,-1,-1,-1,-1],"split_conditions":[4.964E1,3.58E1,6.771E1,2.773E1,4.3366665E1,5.878E1,7.601E1,2.2933332E1,3.248E1,3.9566666E1,4.6866665E1,5.446E1,6.315E1,7.1253334E1,8.266333E1,-8.10008E-1,-7.3547757E-1,-6.1666024E-1,-5.151743E-1,-4.1567066E-1,-3.0685613E-1,-1.9030024E-1,-8.912166E-2,2.6604839E-2,1.5554443E-1,2.67316E-1,3.8904616E-1,4.9295223E-1,6.095171E-1,7.619573E-1,9.6463585E-1],"split_indices":[23,23,23,23,23,23,23,23,23,23,23,23,23,23,23,0,0,0,0,0,0,0,0,0,0,0,0,0,0,0,0],"split_type":[0,0,0,0,0,0,0,0,0,0,0,0,0,0,0,0,0,0,0,0,0,0,0,0,0,0,0,0,0,0,0],"sum_hessian":[7.5E3,3.425E3,4.075E3,1.701E3,1.724E3,2.403E3,1.672E3,9.38E2,7.63E2,9.62E2,7.62E2,1.146E3,1.257E3,1.026E3,6.46E2,5.28E2,4.1E2,4.1E2,3.53E2,4.68E2,4.94E2,4.4E2,3.22E2,5.56E2,5.9E2,6.12E2,6.45E2,4.99E2,5.27E2,4.39E2,2.07E2],"tree_param":{"num_deleted":"0","num_feature":"27","num_nodes":"31","size_leaf_vector":"1"}},{"base_weights":[-1.2529406E-5,-1.5348254E1,1.29006195E1,-2.2163847E1,-8.61458E0,6.474229E0,2.0629578E1,-2.5064125E1,-1.831387E1,-1.1646338E1,-4.7767067E0,1.9219432E0,9.282814E0,1.7066818E1,2.6378342E1,-7.7463126E-1,-6.8875E-1,-5.939838E-1,-4.9976274E-1,-4.2425135E-1,-3.1146973E-1,-1.8139602E-1,-8.156413E-2,8.041155E-3,1.044182E-1,2.1216187E-1,3.3646062E-1,4.4473535E-1,5.6904626E-1,7.092329E-1,9.033433E-1],"categories":[],"categories_nodes":[],"categories_segments":[],"categories_sizes":[],"default_left":[0,0,0,0,0,0,0,0,0,0,0,0,0,0,0,0,0,0,0,0,0,0,0,0,0,0,0,0,0,0,0],"id":2,"left_children":[1,3,5,7,9,11,13,15,17,19,21,23,25,27,29,-1,-1,-1,-1,-1,-1,-1,-1,-1,-1,-1,-1,-1,-1,-1,-1],"loss_changes":[1.4854114E6,1.5703881E5,2.0231581E5,1.8541188E4,2.0013969E4,2.8454297E4,3.7436125E4,9.4525E2,1.47375E3,2.8881875E3,1.976541E3,2.192469E3,5.8018984E3,4.5971562E3,6.4969375E3,0E0,0E0,0E0,0E0,0E0,0E0,0E0,0E0,0E0,0E0,0E0,0E0,0E0,0E0,0E0,0E0],"parents":[2147483647,0,0,1,1,2,2,3,3,4,4,5,5,6,6,7,7,8,8,9,9,10,10,11,11,12,12,13,13,14,14],"right_children":[2,4,6,8,10,12,14,16,18,20,22,24,26,28,30,-1,-1,-1,-1,-1,-1,-1,-1,-1,-1,-1,-1,-1,-1,-1,-1],"split_conditions":[4.964E1,3.58E1,6.642333E1,2.8023333E1,4.3366665E1,5.6676666E1,7.5543335E1,2.4963333E1,3.248E1,3.856E1,4.72E1,5.3256668E1,6.1236668E1,7.022667E1,8.09E1,-7.7463126E-1,-6.8875E-1,-5.939838E-1,-4.9976274E-1,-4.2425135E-1,-3.1146973E-1,-1.8139602E-1,-8.156413E-2,8.041155E-3,1.044182E-1,2.1216187E-1,3.3646062E-1,4.4473535E-1,5.6904626E-1,7.092329E-1,9.033433E-1],"split_indices":[23,23,23,23,23,23,23,23,23,23,23,23,23,23,23,0,0,0,0,0,0,0,0,0,0,0,0,0,0,0,0],"split_type":[0,0,0,0,0,0,0,0,0,0,0,0,0,0,0,0,0,0,0,0,0,0,0,0,0,0,0,0,0,0,0],"sum_hessian":[7.5E3,3.425E3,4.075E3,1.701E3,1.724E3,2.226E3,1.849E3,9.67E2,7.34E2,9.62E2,7.62E2,8.5E2,1.376E3,1.144E3,7.05E2,7.03E2,2.64E2,3.81E2,3.53E2,3.2E2,6.42E2,4.7E2,2.92E2,4.13E2,4.37E2,6.44E2,7.32E2,5.29E2,6.15E2,4.11E2,2.94E2],"tree_param":{"num_deleted":"0","num_feature":"27","num_nodes":"31","size_leaf_vector":"1"}},{"base_weights":[-4.7446523E-5,-1.488885E1,1.2514413E1,-2.1500439E1,-8.356727E0,6.8079953E0,2.070665E1,-2.4313715E1,-1.7765947E1,-1.1297715E1,-4.6337533E0,2.9119208E0,1.0354808E1,1.735922E1,2.5987951E1,-7.6255864E-1,-6.8789494E-1,-5.76211E-1,-4.8481217E-1,-3.9159438E-1,-2.8834388E-1,-1.7917463E-1,-8.373869E-2,2.4825048E-2,1.4613983E-1,2.5134924E-1,3.6642468E-1,4.6378145E-1,5.7375723E-1,7.167704E-1,9.08866E-1],"categories":[],"categories_nodes":[],"categories_segments":[],"categories_sizes":[],"default_left":[0,0,0,0,0,0,0,0,0,0,0,0,0,0,0,0,0,0,0,0,0,0,0,0,0,0,0,0,0,0,0],"id":3,"left_children":[1,3,5,7,9,11,13,15,17,19,21,23,25,27,29,-1,-1,-1,-1,-1,-1,-1,-1,-1,-1,-1,-1,-1,-1,-1,-1],"loss_changes":[1.3978129E6,1.4777844E5,1.9040238E5,1.7445312E4,1.8833469E4,3.318854E4,2.9121125E4,8.925E2,1.3866562E3,2.7228438E3,1.8644443E3,4.680007E3,4.51875E3,3.1466562E3,5.1112188E3,0E0,0E0,0E0,0E0,0E0,0E0,0E0,0E0,0E0,0E0,0E0,0E0,0E0,0E0,0E0,0E0],"parents":[2147483647,0,0,1,1,2,2,3,3,4,4,5,5,6,6,7,7,8,8,9,9,10,10,11,11,12,12,13,13,14,14],"right_children":[2,4,6,8,10,12,14,16,18,20,22,24,26,28,30,-1,-1,-1,-1,-1,-1,-1,-1,-1,-1,-1,-1,-1,-1,-1,-1],"split_conditions":[4.964E1,3.58E1,6.771E1,2.8023333E1,4.3366665E1,5.878E1,7.601E1,2.2933332E1,3.248E1,3.9566666E1,4.6866665E1,5.446E1,6.315E1,7.1253334E1,8.266333E1,-7.6255864E-1,-6.8789494E-1,-5.76211E-1,-4.8481217E-1,-3.9159438E-1,-2.8834388E-1,-1.7917463E-1,-8.373869E-2,2.4825048E-2,1.4613983E-1,2.5134924E-1,3.6642468E-1,4.6378145E-1,5.7375723E-1,7.167704E-1,9.08866E-1],"split_indices":[23,23,23,23,23,23,23,23,23,23,23,23,23,23,23,0,0,0,0,0,0,0,0,0,0,0,0,0,0,0,0],"split_type":[0,0,0,0,0,0,0,0,0,0,0,0,0,0,0,0,0,0,0,0,0,0,0,0,0,0,0,0,0,0,0],"sum_hessian":[7.5E3,3.425E3,4.075E3,1.701E3,1.724E3,2.403E3,1.672E3,9.67E2,7.34E2,9.62E2,7.62E2,1.146E3,1.257E3,1.026E3,6.46E2,5.28E2,4.39E2,3.81E2,3.53E2,4.68E2,4.94E2,4.4E2,3.22E2,5.56E2,5.9E2,6.12E2,6.45E2,4.99E2,5.27E2,4.39E2,2.07E2],"tree_param":{"num_deleted":"0","num_feature":"27","num_nodes":"31","size_leaf_vector":"1"}},{"base_weights":[-4.6005778E-5,-1.3995439E1,1.2531427E1,-2.0856907E1,-7.6512637E0,6.9963517E0,2.0087046E1,-2.3683666E1,-1.7355227E1,-1.0959493E1,-4.02632E0,3.2627628E0,1.0044656E1,1.6839457E1,2.5210829E1,-7.397251E-1,-6.711709E-1,-5.900978E-1,-4.8887888E-1,-3.9985225E-1,-2.927903E-1,-1.7078418E-1,-6.3195355E-2,4.176934E-2,1.4535294E-1,2.4382104E-1,3.5544896E-1,4.498958E-1,5.5657715E-1,6.751706E-1,8.508609E-1],"categories":[],"categories_nodes":[],"categories_segments":[],"categories_sizes":[],"default_left":[0,0,0,0,0,0,0,0,0,0,0,0,0,0,0,0,0,0,0,0,0,0,0,0,0,0,0,0,0,0,0],"id":4,"left_children":[1,3,5,7,9,11,13,15,17,19,21,23,25,27,29,-1,-1,-1,-1,-1,-1,-1,-1,-1,-1,-1,-1,-1,-1,-1,-1],"loss_changes":[1.3157225E6,1.5410912E5,1.6538394E5,1.6431938E4,2.2055898E4,2.5983117E4,2.7409938E4,6.4275E2,1.5490938E3,2.604711E3,2.8058398E3,3.0381436E3,4.252008E3,2.9608125E3,4.8719062E3,0E0,0E0,0E0,0E0,0E0,0E0,0E0,0E0,0E0,0E0,0E0,0E0,0E0,0E0,0E0,0E0],"parents":[2147483647,0,0,1,1,2,2,3,3,4,4,5,5,6,6,7,7,8,8,9,9,10,10,11,11,12,12,13,13,14,14],"right_children":[2,4,6,8,10,12,14,16,18,20,22,24,26,28,30,-1,-1,-1,-1,-1,-1,-1,-1,-1,-1,-1,-1,-1,-1,-1,-1],"split_conditions":[5.0633335E1,3.58E1,6.771E1,2.773E1,4.3366665E1,5.878E1,7.601E1,2.2933332E1,3.0433332E1,3.856E1,4.72E1,5.4713333E1,6.315E1,7.1253334E1,8.09E1,-7.397251E-1,-6.711709E-1,-5.900978E-1,-4.8887888E-1,-3.9985225E-1,-2.927903E-1,-1.7078418E-1,-6.3195355E-2,4.176934E-2,1.4535294E-1,2.4382104E-1,3.5544896E-1,4.498958E-1,5.5657715E-1,6.751706E-1,8.508609E-1],"split_indices":[23,23,23,23,23,23,23,23,23,23,23,23,23,23,23,0,0,0,0,0,0,0,0,0,0,0,0,0,0,0,0],"split_type":[0,0,0,0,0,0,0,0,0,0,0,0,0,0,0,0,0,0,0,0,0,0,0,0,0,0,0,0,0,0,0],"sum_hessian":[7.5E3,3.543E3,3.957E3,1.701E3,1.842E3,2.285E3,1.672E3,9.38E2,7.63E2,9.62E2,8.8E2,1.028E3,1.257E3,1.026E3,6.46E2,5.28E2,4.1E2,2.34E2,5.29E2,3.2E2,6.42E2,4.7E2,4.1E2,4.72E2,5.56E2,6.12E2,6.45E2,4.99E2,5.27E2,3.52E2,2.94E2],"tree_param":{"num_deleted":"0","num_feature":"27","num_nodes":"31","size_leaf_vector":"1"}},{"base_weights":[-5.6935718E-5,-1.3576545E1,1.2156328E1,-2.0232666E1,-7.422234E0,6.7868094E0,1.9485954E1,-2.297466E1,-1.6835985E1,-1.0631431E1,-3.9057999E0,3.1650646E0,9.743795E0,1.6779654E1,2.5290525E1,-7.1757525E-1,-6.510848E-1,-5.7247007E-1,-4.7424015E-1,-3.7921548E-1,-2.7900156E-1,-1.6567153E-1,-6.1304137E-2,4.051886E-2,1.4100023E-1,2.3651835E-1,3.44802E-1,4.5400676E-1,5.7348853E-1,7.1963733E-1,9.4173664E-1],"categories":[],"categories_nodes":[],"categories_segments":[],"categories_sizes":[],"default_left":[0,0,0,0,0,0,0,0,0,0,0,0,0,0,0,0,0,0,0,0,0,0,0,0,0,0,0,0,0,0,0],"id":5,"left_children":[1,3,5,7,9,11,13,15,17,19,21,23,25,27,29,-1,-1,-1,-1,-1,-1,-1,-1,-1,-1,-1,-1,-1,-1,-1,-1],"loss_changes":[1.2381379E6,1.4502294E5,1.5563844E5,1.5461125E4,2.075514E4,2.4449664E4,2.5852438E4,6.043125E2,1.4591094E3,2.4561328E3,2.6403066E3,2.85887E3,4.0009844E3,4.1075E3,3.4533125E3,0E0,0E0,0E0,0E0,0E0,0E0,0E0,0E0,0E0,0E0,0E0,0E0,0E0,0E0,0E0,0E0],"parents":[2147483647,0,0,1,1,2,2,3,3,4,4,5,5,6,6,7,7,8,8,9,9,10,10,11,11,12,12,13,13,14,14],"right_children":[2,4,6,8,10,12,14,16,18,20,22,24,26,28,30,-1,-1,-1,-1,-1,-1,-1,-1,-1,-1,-1,-1,-1,-1,-1,-1],"split_conditions":[5.0633335E1,3.58E1,6.771E1,2.773E1,4.3366665E1,5.878E1,7.730334E1,2.2933332E1,3.0433332E1,3.9013332E1,4.72E1,5.4713333E1,6.315E1,7.2526665E1,8.6293335E1,-7.1757525E-1,-6.510848E-1,-5.7247007E-1,-4.7424015E-1,-3.7921548E-1,-2.7900156E-1,-1.6567153E-1,-6.1304137E-2,4.051886E-2,1.4100023E-1,2.3651835E-1,3.44802E-1,4.5400676E-1,5.7348853E-1,7.1963733E-1,9.4173664E-1],"split_indices":[23,23,23,23,23,23,23,23,23,23,23,23,23,23,23,0,0,0,0,0,0,0,0,0,0,0,0,0,0,0,0],"split_type":[0,0,0,0,0,0,0,0,0,0,0,0,0,0,0,0,0,0,0,0,0,0,0,0,0,0,0,0,0,0,0],"sum_hessian":[7.5E3,3.543E3,3.957E3,1.701E3,1.842E3,2.285E3,1.672E3,9.38E2,7.63E2,9.62E2,8.8E2,1.028E3,1.257E3,1.143E3,5.29E2,5.28E2,4.1E2,2.34E2,5.29E2,3.8E2,5.82E2,4.7E2,4.1E2,4.72E2,5.56E2,6.12E2,6.45E2,6.75E2,4.68E2,4.4E2,8.9E1],"tree_param":{"num_deleted":"0","num_feature":"27","num_nodes":"31","size_leaf_vector":"1"}},{"base_weights":[-3.465933E-5,-1.359381E1,1.1425916E1,-1.9627111E1,-7.6330137E0,5.727817E0,1.8278965E1,-2.2286882E1,-1.633228E1,-1.0599825E1,-4.552126E0,1.6818463E0,8.224035E0,1.4780182E1,2.2923773E1,-6.8648803E-1,-6.12419E-1,-5.305181E-1,-4.4149688E-1,-3.76553E-1,-2.8373274E-1,-1.7292367E-1,-7.692023E-2,6.362969E-3,9.200974E-2,1.8800941E-1,2.9804343E-1,3.9348108E-1,4.925803E-1,6.1882645E-1,8.0189544E-1],"categories":[],"categories_nodes":[],"categories_segments":[],"categories_sizes":[],"default_left":[0,0,0,0,0,0,0,0,0,0,0,0,0,0,0,0,0,0,0,0,0,0,0,0,0,0,0,0,0,0,0],"id":6,"left_children":[1,3,5,7,9,11,13,15,17,19,21,23,25,27,29,-1,-1,-1,-1,-1,-1,-1,-1,-1,-1,-1,-1,-1,-1,-1,-1],"loss_changes":[1.1652244E6,1.23057625E5,1.5905806E5,1.4547625E4,1.5717453E4,2.247704E4,2.9722125E4,5.7678125E2,1.4049844E3,1.8363672E3,2.0277227E3,1.7314985E3,4.5463516E3,2.6677031E3,6.374375E3,0E0,0E0,0E0,0E0,0E0,0E0,0E0,0E0,0E0,0E0,0E0,0E0,0E0,0E0,0E0,0E0],"parents":[2147483647,0,0,1,1,2,2,3,3,4,4,5,5,6,6,7,7,8,8,9,9,10,10,11,11,12,12,13,13,14,14],"right_children":[2,4,6,8,10,12,14,16,18,20,22,24,26,28,30,-1,-1,-1,-1,-1,-1,-1,-1,-1,-1,-1,-1,-1,-1,-1,-1],"split_conditions":[4.964E1,3.58E1,6.642333E1,2.773E1,4.272E1,5.6676666E1,7.439667E1,2.4963333E1,3.248E1,3.856E1,4.6866665E1,5.3256668E1,6.1236668E1,7.022667E1,8.09E1,-6.8648803E-1,-6.12419E-1,-5.305181E-1,-4.4149688E-1,-3.76553E-1,-2.8373274E-1,-1.7292367E-1,-7.692023E-2,6.362969E-3,9.200974E-2,1.8800941E-1,2.9804343E-1,3.9348108E-1,4.925803E-1,6.1882645E-1,8.0189544E-1],"split_indices":[23,23,23,23,23,23,23,23,23,23,23,23,23,23,23,0,0,0,0,0,0,0,0,0,0,0,0,0,0,0,0],"split_type":[0,0,0,0,0,0,0,0,0,0,0,0,0,0,0,0,0,0,0,0,0,0,0,0,0,0,0,0,0,0,0],"sum_hessian":[7.5E3,3.425E3,4.075E3,1.701E3,1.724E3,2.226E3,1.849E3,9.38E2,7.63E2,8.77E2,8.47E2,8.5E2,1.376E3,1.057E3,7.92E2,7.03E2,2.35E2,4.1E2,3.53E2,3.2E2,5.57E2,5.25E2,3.22E2,4.13E2,4.37E2,6.44E2,7.32E2,5.29E2,5.28E2,4.98E2,2.94E2],"tree_param":{"num_deleted":"0","num_feature":"27","num_nodes":"31","size_leaf_vector":"1"}},{"base_weights":[-7.1961076E-5,-1.2777064E1,1.1440444E1,-1.9039637E1,-6.986628E0,6.9760942E0,1.9259E1,-2.1532913E1,-1.5729935E1,-9.73147E0,-3.3317533E0,3.7612488E0,1.0495051E1,1.6910822E1,2.4511889E1,-6.659226E-1,-5.9057844E-1,-5.050862E-1,-4.203876E-1,-3.4497902E-1,-2.4364199E-1,-1.394244E-1,-5.0460957E-2,5.491149E-2,1.7309484E-1,2.599667E-1,3.5311612E-1,4.615786E-1,5.714185E-1,6.9383526E-1,8.900088E-1],"categories":[],"categories_nodes":[],"categories_segments":[],"categories_sizes":[],"default_left":[0,0,0,0,0,0,0,0,0,0,0,0,0,0,0,0,0,0,0,0,0,0,0,0,0,0,0,0,0,0,0],"id":7,"left_children":[1,3,5,7,9,11,13,15,17,19,21,23,25,27,29,-1,-1,-1,-1,-1,-1,-1,-1,-1,-1,-1,-1,-1,-1,-1,-1],"loss_changes":[1.096608E6,1.2838056E5,1.3801606E5,1.37025E4,1.8455344E4,2.8478938E4,1.7318688E4,7.4684375E2,1.1570938E3,2.8989922E3,1.7106514E3,5.1041523E3,2.7031406E3,2.9515625E3,2.4622188E3,0E0,0E0,0E0,0E0,0E0,0E0,0E0,0E0,0E0,0E0,0E0,0E0,0E0,0E0,0E0,0E0],"parents":[2147483647,0,0,1,1,2,2,3,3,4,4,5,5,6,6,7,7,8,8,9,9,10,10,11,11,12,12,13,13,14,14],"right_children":[2,4,6,8,10,12,14,16,18,20,22,24,26,28,30,-1,-1,-1,-1,-1,-1,-1,-1,-1,-1,-1,-1,-1,-1,-1,-1],"split_conditions":[5.0633335E1,3.58E1,6.93E1,2.8023333E1,4.4073334E1,6.0806667E1,7.844E1,2.4963333E1,3.3013332E1,3.9863335E1,4.766E1,5.6196667E1,6.437666E1,7.381E1,8.6293335E1,-6.659226E-1,-5.9057844E-1,-5.050862E-1,-4.203876E-1,-3.4497902E-1,-2.4364199E-1,-1.394244E-1,-5.0460957E-2,5.491149E-2,1.7309484E-1,2.599667E-1,3.5311612E-1,4.615786E-1,5.714185E-1,6.9383526E-1,8.900088E-1],"split_indices":[23,23,23,23,23,23,23,23,23,23,23,23,23,23,23,0,0,0,0,0,0,0,0,0,0,0,0,0,0,0,0],"split_type":[0,0,0,0,0,0,0,0,0,0,0,0,0,0,0,0,0,0,0,0,0,0,0,0,0,0,0,0,0,0,0],"sum_hessian":[7.5E3,3.543E3,3.957E3,1.701E3,1.842E3,2.52E3,1.437E3,9.67E2,7.34E2,1.051E3,7.91E2,1.318E3,1.202E3,9.96E2,4.41E2,7.03E2,2.64E2,4.41E2,2.93E2,4.98E2,5.53E2,4.39E2,3.52E2,6.73E2,6.45E2,4.97E2,7.05E2,5.86E2,4.1E2,3.52E2,8.9E1],"tree_param":{"num_deleted":"0","num_feature":"27","num_nodes":"31","size_leaf_vector":"1"}},{"base_weights":[-3.333143E-6,-1.2592178E1,1.0924475E1,-1.8469734E1,-6.977664E0,5.939702E0,1.7687233E1,-2.0888226E1,-1.5259301E1,-9.712879E0,-3.7646601E0,2.684272E0,8.82142E0,1.4817649E1,2.23522E1,-6.506227E-1,-5.8283186E-1,-4.959542E-1,-4.152827E-1,-3.5497448E-1,-2.5918388E-1,-1.5095405E-1,-6.1744772E-2,3.005299E-2,1.2858789E-1,2.1582824E-1,3.1286302E-1,3.8250637E-1,4.8348925E-1,6.1502546E-1,7.848173E-1],"categories":[],"categories_nodes":[],"categories_segments":[],"categories_sizes":[],"default_left":[0,0,0,0,0,0,0,0,0,0,0,0,0,0,0,0,0,0,0,0,0,0,0,0,0,0,0,0,0,0,0],"id":8,"left_children":[1,3,5,7,9,11,13,15,17,19,21,23,25,27,29,-1,-1,-1,-1,-1,-1,-1,-1,-1,-1,-1,-1,-1,-1,-1,-1],"loss_changes":[1.0319974E6,1.1487225E5,1.3530897E5,1.28926875E4,1.5640336E4,2.1683336E4,2.2475688E4,7.0440625E2,1.0929844E3,2.0867578E3,1.7664092E3,2.927728E3,3.132289E3,2.63225E3,4.0207812E3,0E0,0E0,0E0,0E0,0E0,0E0,0E0,0E0,0E0,0E0,0E0,0E0,0E0,0E0,0E0,0E0],"parents":[2147483647,0,0,1,1,2,2,3,3,4,4,5,5,6,6,7,7,8,8,9,9,10,10,11,11,12,12,13,13,14,14],"right_children":[2,4,6,8,10,12,14,16,18,20,22,24,26,28,30,-1,-1,-1,-1,-1,-1,-1,-1,-1,-1,-1,-1,-1,-1,-1,-1],"split_conditions":[5.011E1,3.58E1,6.745E1,2.8023333E1,4.3366665E1,5.878E1,7.601E1,2.3993334E1,3.248E1,3.856E1,4.72E1,5.4713333E1,6.315E1,7.053E1,8.266333E1,-6.506227E-1,-5.8283186E-1,-4.959542E-1,-4.152827E-1,-3.5497448E-1,-2.5918388E-1,-1.5095405E-1,-6.1744772E-2,3.005299E-2,1.2858789E-1,2.1582824E-1,3.1286302E-1,3.8250637E-1,4.8348925E-1,6.1502546E-1,7.848173E-1],"split_indices":[23,23,23,23,23,23,23,23,23,23,23,23,23,23,23,0,0,0,0,0,0,0,0,0,0,0,0,0,0,0,0],"split_type":[0,0,0,0,0,0,0,0,0,0,0,0,0,0,0,0,0,0,0,0,0,0,0,0,0,0,0,0,0,0,0],"sum_hessian":[7.5E3,3.484E3,4.016E3,1.701E3,1.783E3,2.313E3,1.703E3,9.67E2,7.34E2,9.62E2,8.21E2,1.087E3,1.226E3,1.057E3,6.46E2,6.16E2,3.51E2,3.81E2,3.53E2,3.2E2,6.42E2,4.7E2,3.51E2,5.31E2,5.56E2,6.12E2,6.14E2,4.12E2,6.45E2,4.39E2,2.07E2],"tree_param":{"num_deleted":"0","num_feature":"27","num_nodes":"31","size_leaf_vector":"1"}},{"base_weights":[-5.2224377E-6,-1.2024463E1,1.0766689E1,-1.7371418E1,-6.0138836E0,6.5642085E0,1.8126625E1,-1.9686771E1,-1.3483253E1,-8.6015005E0,-3.1343007E0,3.5361743E0,9.878683E0,1.5909273E1,2.308697E1,-6.2343144E-1,-5.282149E-1,-4.37368E-1,-3.7027887E-1,-2.948293E-1,-2.1485084E-1,-5.977035E-2,-1.4852476E-1,5.1484756E-2,1.6288342E-1,2.4469854E-1,3.3237788E-1,4.3402836E-1,5.3788006E-1,6.529779E-1,8.4032243E-1],"categories":[0],"categories_nodes":[10],"categories_segments":[0],"categories_sizes":[1],"default_left":[0,0,0,0,0,0,0,0,0,0,1,0,0,0,0,0,0,0,0,0,0,0,0,0,0,0,0,0,0,0,0],"id":9,"left_children":[1,3,5,7,9,11,13,15,17,19,21,23,25,27,29,-1,-1,-1,-1,-1,-1,-1,-1,-1,-1,-1,-1,-1,-1,-1,-1],"loss_changes":[9.712365E5,1.1379134E5,1.2229944E5,1.6610938E4,1.2415465E4,2.5265344E4,1.5445125E4,2.299625E3,6.959375E2,1.4797148E3,1.6323604E3,4.534959E3,2.3948906E3,2.640875E3,2.2603125E3,0E0,0E0,0E0,0E0,0E0,0E0,0E0,0E0,0E0,0E0,0E0,0E0,0E0,0E0,0E0,0E0],"parents":[2147483647,0,0,1,1,2,2,3,3,4,4,5,5,6,6,7,7,8,8,9,9,10,10,11,11,12,12,13,13,14,14],"right_children":[2,4,6,8,10,12,14,16,18,20,22,24,26,28,30,-1,-1,-1,-1,-1,-1,-1,-1,-1,-1,-1,-1,-1,-1,-1,-1],"split_conditions":[5.0633335E1,3.726E1,6.93E1,3.0433332E1,4.4073334E1,6.0806667E1,7.844E1,2.5663334E1,3.4086666E1,4.093E1,1E-45,5.6196667E1,6.437666E1,7.381E1,8.6293335E1,-6.2343144E-1,-5.282149E-1,-4.37368E-1,-3.7027887E-1,-2.948293E-1,-2.1485084E-1,-5.977035E-2,-1.4852476E-1,5.1484756E-2,1.6288342E-1,2.4469854E-1,3.3237788E-1,4.3402836E-1,5.3788006E-1,6.529779E-1,8.4032243E-1],"split_indices":[23,23,23,23,23,23,23,23,23,23,1,23,23,23,23,0,0,0,0,0,0,0,0,0,0,0,0,0,0,0,0],"split_type":[0,0,0,0,0,0,0,0,0,0,1,0,0,0,0,0,0,0,0,0,0,0,0,0,0,0,0,0,0,0,0],"sum_hessian":[7.5E3,3.543E3,3.957E3,1.874E3,1.669E3,2.52E3,1.437E3,1.172E3,7.02E2,8.78E2,7.91E2,1.318E3,1.202E3,9.96E2,4.41E2,7.62E2,4.1E2,3.52E2,3.5E2,4.71E2,4.07E2,4.87E2,3.04E2,6.73E2,6.45E2,4.97E2,7.05E2,5.86E2,4.1E2,3.52E2,8.9E1],"tree_param":{"num_deleted":"0","num_feature":"27","num_nodes":"31","size_leaf_vector":"1"}},{"base_weights":[4.596001E-5,-1.2041362E1,1.0121235E1,-1.7381588E1,-6.765301E0,5.0686345E0,1.6197947E1,-1.9741697E1,-1.4457995E1,-9.68776E0,-4.2798057E0,2.0255802E0,7.6665096E0,1.3092597E1,2.0320473E1,-6.1744356E-1,-5.5837697E-1,-4.9320075E-1,-4.0655106E-1,-3.343213E-1,-2.6029882E-1,-1.8250963E-1,-9.1105394E-2,4.5781625E-3,9.855011E-2,1.8561311E-1,2.721186E-1,3.4890336E-1,4.359872E-1,5.4772824E-1,7.1221906E-1],"categories":[],"categories_nodes":[],"categories_segments":[],"categories_sizes":[],"default_left":[0,0,0,0,0,0,0,0,0,0,0,0,0,0,0,0,0,0,0,0,0,0,0,0,0,0,0,0,0,0,0],"id":10,"left_children":[1,3,5,7,9,11,13,15,17,19,21,23,25,27,29,-1,-1,-1,-1,-1,-1,-1,-1,-1,-1,-1,-1,-1,-1,-1,-1],"loss_changes":[9.1429375E5,9.640881E4,1.25062E5,1.14549375E4,1.2487133E4,1.7588996E4,2.3414094E4,5.03375E2,1.1465938E3,1.0675391E3,2.074746E3,2.4217134E3,2.4371328E3,2.0569531E3,5.1572188E3,0E0,0E0,0E0,0E0,0E0,0E0,0E0,0E0,0E0,0E0,0E0,0E0,0E0,0E0,0E0,0E0],"parents":[2147483647,0,0,1,1,2,2,3,3,4,4,5,5,6,6,7,7,8,8,9,9,10,10,11,11,12,12,13,13,14,14],"right_children":[2,4,6,8,10,12,14,16,18,20,22,24,26,28,30,-1,-1,-1,-1,-1,-1,-1,-1,-1,-1,-1,-1,-1,-1,-1,-1],"split_conditions":[4.964E1,3.58E1,6.642333E1,2.773E1,4.2073334E1,5.7896667E1,7.439667E1,2.2933332E1,3.0433332E1,3.856E1,4.496E1,5.3256668E1,6.2263332E1,7.022667E1,8.09E1,-6.1744356E-1,-5.5837697E-1,-4.9320075E-1,-4.0655106E-1,-3.343213E-1,-2.6029882E-1,-1.8250963E-1,-9.1105394E-2,4.5781625E-3,9.855011E-2,1.8561311E-1,2.721186E-1,3.4890336E-1,4.359872E-1,5.4772824E-1,7.1221906E-1],"split_indices":[23,23,23,23,23,23,23,23,23,23,23,23,23,23,23,0,0,0,0,0,0,0,0,0,0,0,0,0,0,0,0],"split_type":[0,0,0,0,0,0,0,0,0,0,0,0,0,0,0,0,0,0,0,0,0,0,0,0,0,0,0,0,0,0,0],"sum_hessian":[7.5E3,3.425E3,4.075E3,1.701E3,1.724E3,2.226E3,1.849E3,9.38E2,7.63E2,7.91E2,9.33E2,1.026E3,1.2E3,1.057E3,7.92E2,5.28E2,4.1E2,2.34E2,5.29E2,3.2E2,4.71E2,3.79E2,5.54E2,4.13E2,6.13E2,5.87E2,6.13E2,5.29E2,5.28E2,4.98E2,2.94E2],"tree_param":{"num_deleted":"0","num_feature":"27","num_nodes":"31","size_leaf_vector":"1"}},{"base_weights":[-0E0,-1.1680986E1,9.818242E0,-1.7429516E1,-7.0656934E0,4.9168324E0,1.57131195E1,-1.9150703E1,-1.4646339E1,-9.867032E0,-4.1517067E0,1.4367367E0,7.063924E0,1.2700564E1,1.971245E1,-5.9895533E-1,-5.4166645E-1,-4.7846764E-1,-4.121222E-1,-3.422909E-1,-2.5702572E-1,-1.6566609E-1,-7.800708E-2,4.4411654E-3,7.9539366E-2,1.6596554E-1,2.6001498E-1,3.38456E-1,4.229324E-1,5.3132933E-1,6.9092494E-1],"categories":[],"categories_nodes":[],"categories_segments":[],"categories_sizes":[],"default_left":[0,0,0,0,0,0,0,0,0,0,0,0,0,0,0,0,0,0,0,0,0,0,0,0,0,0,0,0,0,0,0],"id":11,"left_children":[1,3,5,7,9,11,13,15,17,19,21,23,25,27,29,-1,-1,-1,-1,-1,-1,-1,-1,-1,-1,-1,-1,-1,-1,-1,-1],"loss_changes":[8.603799E5,9.077009E4,1.17689375E5,7.0214375E3,1.5483773E4,1.6629332E4,2.2035562E4,4.733125E2,4.7292188E2,1.8428125E3,1.9707773E3,1.3313307E3,3.3322031E3,1.9355625E3,4.8549062E3,0E0,0E0,0E0,0E0,0E0,0E0,0E0,0E0,0E0,0E0,0E0,0E0,0E0,0E0,0E0,0E0],"parents":[2147483647,0,0,1,1,2,2,3,3,4,4,5,5,6,6,7,7,8,8,9,9,10,10,11,11,12,12,13,13,14,14],"right_children":[2,4,6,8,10,12,14,16,18,20,22,24,26,28,30,-1,-1,-1,-1,-1,-1,-1,-1,-1,-1,-1,-1,-1,-1,-1,-1],"split_conditions":[4.964E1,3.4086666E1,6.642333E1,2.773E1,4.2073334E1,5.6676666E1,7.439667E1,2.2933332E1,3.0433332E1,3.809667E1,4.58E1,5.3256668E1,6.178E1,7.022667E1,8.09E1,-5.9895533E-1,-5.4166645E-1,-4.7846764E-1,-4.121222E-1,-3.422909E-1,-2.5702572E-1,-1.6566609E-1,-7.800708E-2,4.4411654E-3,7.9539366E-2,1.6596554E-1,2.6001498E-1,3.38456E-1,4.229324E-1,5.3132933E-1,6.9092494E-1],"split_indices":[23,23,23,23,23,23,23,23,23,23,23,23,23,23,23,0,0,0,0,0,0,0,0,0,0,0,0,0,0,0,0],"split_type":[0,0,0,0,0,0,0,0,0,0,0,0,0,0,0,0,0,0,0,0,0,0,0,0,0,0,0,0,0,0,0],"sum_hessian":[7.5E3,3.425E3,4.075E3,1.524E3,1.901E3,2.226E3,1.849E3,9.38E2,5.86E2,9.68E2,9.33E2,8.5E2,1.376E3,1.057E3,7.92E2,5.28E2,4.1E2,2.34E2,3.52E2,4.39E2,5.29E2,4.94E2,4.39E2,4.13E2,4.37E2,7.06E2,6.7E2,5.29E2,5.28E2,4.98E2,2.94E2],"tree_param":{"num_deleted":"0","num_feature":"27","num_nodes":"31","size_leaf_vector":"1"}},{"base_weights":[-2.4666664E-5,-1.1331402E1,9.524312E0,-1.635846E1,-6.364745E0,4.41135E0,1.4844962E1,-1.8577398E1,-1.3609712E1,-9.112973E0,-4.0274205E0,1.2996864E0,6.439369E0,1.2017469E1,1.9122622E1,-5.8811176E-1,-5.322353E-1,-4.6417475E-1,-3.8273683E-1,-3.145483E-1,-2.4481189E-1,-1.7209187E-1,-8.549625E-2,4.3082777E-3,7.399423E-2,1.509042E-1,2.3331518E-1,3.2111746E-1,4.1026843E-1,5.1542133E-1,6.7026746E-1],"categories":[],"categories_nodes":[],"categories_segments":[],"categories_sizes":[],"default_left":[0,0,0,0,0,0,0,0,0,0,0,0,0,0,0,0,0,0,0,0,0,0,0,0,0,0,0,0,0,0,0],"id":12,"left_children":[1,3,5,7,9,11,13,15,17,19,21,23,25,27,29,-1,-1,-1,-1,-1,-1,-1,-1,-1,-1,-1,-1,-1,-1,-1,-1],"loss_changes":[8.0964494E5,8.543284E4,1.1081719E5,1.0124969E4,1.1042516E4,1.3116719E4,2.3920938E4,4.54375E2,1.0120469E3,9.4764844E2,1.8623711E3,1.108178E3,2.3331562E3,2.4757344E3,4.5701875E3,0E0,0E0,0E0,0E0,0E0,0E0,0E0,0E0,0E0,0E0,0E0,0E0,0E0,0E0,0E0,0E0],"parents":[2147483647,0,0,1,1,2,2,3,3,4,4,5,5,6,6,7,7,8,8,9,9,10,10,11,11,12,12,13,13,14,14],"right_children":[2,4,6,8,10,12,14,16,18,20,22,24,26,28,30,-1,-1,-1,-1,-1,-1,-1,-1,-1,-1,-1,-1,-1,-1,-1,-1],"split_conditions":[4.964E1,3.58E1,6.543667E1,2.773E1,4.2073334E1,5.6463333E1,7.439667E1,2.1546667E1,3.0433332E1,3.856E1,4.496E1,5.3256668E1,6.0806667E1,7.022667E1,8.09E1,-5.8811176E-1,-5.322353E-1,-4.6417475E-1,-3.8273683E-1,-3.145483E-1,-2.4481189E-1,-1.7209187E-1,-8.549625E-2,4.3082777E-3,7.399423E-2,1.509042E-1,2.3331518E-1,3.2111746E-1,4.1026843E-1,5.1542133E-1,6.7026746E-1],"split_indices":[23,23,23,23,23,23,23,23,23,23,23,23,23,23,23,0,0,0,0,0,0,0,0,0,0,0,0,0,0,0,0],"split_type":[0,0,0,0,0,0,0,0,0,0,0,0,0,0,0,0,0,0,0,0,0,0,0,0,0,0,0,0,0,0,0],"sum_hessian":[7.5E3,3.425E3,4.075E3,1.701E3,1.724E3,2.079E3,1.996E3,9.38E2,7.63E2,7.91E2,9.33E2,8.21E2,1.258E3,1.204E3,7.92E2,4.11E2,5.27E2,2.34E2,5.29E2,3.2E2,4.71E2,3.79E2,5.54E2,4.13E2,4.08E2,6.15E2,6.43E2,6.76E2,5.28E2,4.98E2,2.94E2],"tree_param":{"num_deleted":"0","num_feature":"27","num_nodes":"31","size_leaf_vector":"1"}},{"base_weights":[-7.7582685E-5,-1.0650781E1,9.536554E0,-1.5307308E1,-5.23527E0,5.315398E0,1.5298615E1,-1.7433498E1,-1.1883804E1,-7.4467697E0,-2.6834588E0,2.4638512E0,7.643559E0,1.3149143E1,1.9909178E1,-5.525302E-1,-4.6691293E-1,-3.8834402E-1,-3.2607982E-1,-1.4870769E-1,-2.42047E-1,-4.8300497E-2,-1.3256095E-1,3.0989828E-2,1.1022963E-1,1.85304E-1,2.707021E-1,3.4166577E-1,4.3479484E-1,5.639537E-1,7.5388163E-1],"categories":[0,2,0],"categories_nodes":[9,10],"categories_segments":[0,2],"categories_sizes":[2,1],"default_left":[0,0,0,0,0,0,0,0,0,1,1,0,0,0,0,0,0,0,0,0,0,0,0,0,0,0,0,0,0,0,0],"id":13,"left_children":[1,3,5,7,9,11,13,15,17,19,21,23,25,27,29,-1,-1,-1,-1,-1,-1,-1,-1,-1,-1,-1,-1,-1,-1,-1,-1],"loss_changes":[7.61992E5,8.928856E4,9.618531E4,1.3656406E4,9.2340625E3,1.515659E4,1.6314781E4,1.8684688E3,6.458906E2,1.3172734E3,1.4135073E3,1.7779702E3,2.4888047E3,2.5388906E3,2.5962656E3,0E0,0E0,0E0,0E0,0E0,0E0,0E0,0E0,0E0,0E0,0E0,0E0,0E0,0E0,0E0,0E0],"parents":[2147483647,0,0,1,1,2,2,3,3,4,4,5,5,6,6,7,7,8,8,9,9,10,10,11,11,12,12,13,13,14,14],"right_children":[2,4,6,8,10,12,14,16,18,20,22,24,26,28,30,-1,-1,-1,-1,-1,-1,-1,-1,-1,-1,-1,-1,-1,-1,-1,-1],"split_conditions":[5.0633335E1,3.7496666E1,6.771E1,3.0433332E1,4.4226665E1,5.878E1,7.730334E1,2.5663334E1,3.4086666E1,1E-45,1E-45,5.4713333E1,6.315E1,7.1253334E1,8.6293335E1,-5.525302E-1,-4.6691293E-1,-3.8834402E-1,-3.2607982E-1,-1.4870769E-1,-2.42047E-1,-4.8300497E-2,-1.3256095E-1,3.0989828E-2,1.1022963E-1,1.85304E-1,2.707021E-1,3.4166577E-1,4.3479484E-1,5.639537E-1,7.5388163E-1],"split_indices":[23,23,23,23,23,23,23,23,23,5,1,23,23,23,23,0,0,0,0,0,0,0,0,0,0,0,0,0,0,0,0],"split_type":[0,0,0,0,0,0,0,0,0,1,1,0,0,0,0,0,0,0,0,0,0,0,0,0,0,0,0,0,0,0,0],"sum_hessian":[7.5E3,3.543E3,3.957E3,1.904E3,1.639E3,2.285E3,1.672E3,1.172E3,7.32E2,8.77E2,7.62E2,1.028E3,1.257E3,1.143E3,5.29E2,7.62E2,4.1E2,3.52E2,3.8E2,1.77E2,7E2,4.72E2,2.9E2,4.72E2,5.56E2,6.12E2,6.45E2,4.99E2,6.44E2,4.4E2,8.9E1],"tree_param":{"num_deleted":"0","num_feature":"27","num_nodes":"31","size_leaf_vector":"1"}},{"base_weights":[-2.3732442E-5,-1.0665028E1,8.964207E0,-1.5914722E1,-6.450228E0,4.1507196E0,1.3973215E1,-1.748538E1,-1.3374922E1,-9.01297E0,-3.7844396E0,1.2228527E0,6.058945E0,1.1305807E1,1.8008717E1,-5.539756E-1,-5.006103E-1,-4.3636099E-1,-3.7672672E-1,-3.1240454E-1,-2.3499253E-1,-1.4283247E-1,-5.765795E-2,4.161938E-3,6.95098E-2,1.4202258E-1,2.1949916E-1,2.9647005E-1,3.7938586E-1,4.8514715E-1,6.316472E-1],"categories":[],"categories_nodes":[],"categories_segments":[],"categories_sizes":[],"default_left":[0,0,0,0,0,0,0,0,0,0,0,0,0,0,0,0,0,0,0,0,0,0,0,0,0,0,0,0,0,0,0],"id":14,"left_children":[1,3,5,7,9,11,13,15,17,19,21,23,25,27,29,-1,-1,-1,-1,-1,-1,-1,-1,-1,-1,-1,-1,-1,-1,-1,-1],"loss_changes":[7.17218E5,7.570022E4,9.821578E4,5.8465312E3,1.2958555E4,1.1612887E4,2.1289844E4,4.2334375E2,3.7621875E2,1.5178203E3,1.6891309E3,9.744739E2,2.0619883E3,2.1719219E3,4.0936562E3,0E0,0E0,0E0,0E0,0E0,0E0,0E0,0E0,0E0,0E0,0E0,0E0,0E0,0E0,0E0,0E0],"parents":[2147483647,0,0,1,1,2,2,3,3,4,4,5,5,6,6,7,7,8,8,9,9,10,10,11,11,12,12,13,13,14,14],"right_children":[2,4,6,8,10,12,14,16,18,20,22,24,26,28,30,-1,-1,-1,-1,-1,-1,-1,-1,-1,-1,-1,-1,-1,-1,-1,-1],"split_conditions":[4.964E1,3.4086666E1,6.543667E1,2.773E1,4.2073334E1,5.6463333E1,7.439667E1,2.1546667E1,3.0433332E1,3.809667E1,4.6866665E1,5.3256668E1,6.0806667E1,6.958E1,8.09E1,-5.539756E-1,-5.006103E-1,-4.3636099E-1,-3.7672672E-1,-3.1240454E-1,-2.3499253E-1,-1.4283247E-1,-5.765795E-2,4.161938E-3,6.95098E-2,1.4202258E-1,2.1949916E-1,2.9647005E-1,3.7938586E-1,4.8514715E-1,6.316472E-1],"split_indices":[23,23,23,23,23,23,23,23,23,23,23,23,23,23,23,0,0,0,0,0,0,0,0,0,0,0,0,0,0,0,0],"split_type":[0,0,0,0,0,0,0,0,0,0,0,0,0,0,0,0,0,0,0,0,0,0,0,0,0,0,0,0,0,0,0],"sum_hessian":[7.5E3,3.425E3,4.075E3,1.524E3,1.901E3,2.079E3,1.996E3,9.38E2,5.86E2,9.68E2,9.33E2,8.21E2,1.258E3,1.204E3,7.92E2,4.11E2,5.27E2,2.34E2,3.52E2,4.39E2,5.29E2,6.11E2,3.22E2,4.13E2,4.08E2,6.15E2,6.43E2,5.88E2,6.16E2,4.98E2,2.94E2],"tree_param":{"num_deleted":"0","num_feature":"27","num_nodes":"31","size_leaf_vector":"1"}},{"base_weights":[-7.4116346E-5,-1.0345846E1,8.695832E0,-1.5438512E1,-6.2571187E0,4.351398E0,1.3920838E1,-1.6961946E1,-1.2975064E1,-8.825672E0,-3.7538438E0,1.8717642E0,6.7182717E0,1.157461E1,1.7978231E1,-5.310031E-1,-4.791104E-1,-4.2332593E-1,-3.6545688E-1,-3.0557597E-1,-2.3236075E-1,-1.5943065E-1,-7.773833E-2,4.0373844E-3,8.7982334E-2,1.711472E-1,2.4460678E-1,3.0214274E-1,3.8752708E-1,5.118323E-1,7.127775E-1],"categories":[],"categories_nodes":[],"categories_segments":[],"categories_sizes":[],"default_left":[0,0,0,0,0,0,0,0,0,0,0,0,0,0,0,0,0,0,0,0,0,0,0,0,0,0,0,0,0,0,0],"id":15,"left_children":[1,3,5,7,9,11,13,15,17,19,21,23,25,27,29,-1,-1,-1,-1,-1,-1,-1,-1,-1,-1,-1,-1,-1,-1,-1,-1],"loss_changes":[6.749241E5,7.123916E4,9.246156E4,5.500125E3,1.2195086E4,1.3056789E4,1.7400188E4,4.0128125E2,3.5428125E2,1.2976406E3,1.7361387E3,2.0064546E3,1.6087422E3,2.2395938E3,3.1747812E3,0E0,0E0,0E0,0E0,0E0,0E0,0E0,0E0,0E0,0E0,0E0,0E0,0E0,0E0,0E0,0E0],"parents":[2147483647,0,0,1,1,2,2,3,3,4,4,5,5,6,6,7,7,8,8,9,9,10,10,11,11,12,12,13,13,14,14],"right_children":[2,4,6,8,10,12,14,16,18,20,22,24,26,28,30,-1,-1,-1,-1,-1,-1,-1,-1,-1,-1,-1,-1,-1,-1,-1,-1],"split_conditions":[4.964E1,3.4086666E1,6.642333E1,2.773E1,4.186E1,5.8376667E1,7.576E1,2.2933332E1,3.0433332E1,3.781E1,4.496E1,5.3256668E1,6.315E1,7.053E1,8.6293335E1,-5.310031E-1,-4.791104E-1,-4.2332593E-1,-3.6545688E-1,-3.0557597E-1,-2.3236075E-1,-1.5943065E-1,-7.773833E-2,4.0373844E-3,8.7982334E-2,1.711472E-1,2.4460678E-1,3.0214274E-1,3.8752708E-1,5.118323E-1,7.127775E-1],"split_indices":[23,23,23,23,23,23,23,23,23,23,23,23,23,23,23,0,0,0,0,0,0,0,0,0,0,0,0,0,0,0,0],"split_type":[0,0,0,0,0,0,0,0,0,0,0,0,0,0,0,0,0,0,0,0,0,0,0,0,0,0,0,0,0,0,0],"sum_hessian":[7.5E3,3.425E3,4.075E3,1.524E3,1.901E3,2.226E3,1.849E3,9.38E2,5.86E2,9.37E2,9.64E2,1.088E3,1.138E3,1.174E3,6.75E2,5.28E2,4.1E2,2.34E2,3.52E2,4.11E2,5.26E2,4.1E2,5.54E2,4.13E2,6.75E2,6.7E2,4.68E2,5.58E2,6.16E2,5.86E2,8.9E1],"tree_param":{"num_deleted":"0","num_feature":"27","num_nodes":"31","size_leaf_vector":"1"}},{"base_weights":[-9.163873E-5,-1.0274961E1,8.241006E0,-1.4976542E1,-6.3188806E0,3.712355E0,1.3150994E1,-1.6454166E1,-1.2587162E1,-8.561479E0,-3.915719E0,9.4776523E-1,5.7053647E0,1.0636964E1,1.6954468E1,-5.2343565E-1,-4.7232702E-1,-4.106802E-1,-3.5452428E-1,-2.9643092E-1,-2.2540316E-1,-8.691341E-2,-1.6331384E-1,-1.7247641E-2,5.3889193E-2,1.3372421E-1,2.0669957E-1,2.769035E-1,3.55197E-1,4.676679E-1,6.215884E-1],"categories":[0],"categories_nodes":[10],"categories_segments":[0],"categories_sizes":[1],"default_left":[0,0,0,0,0,0,0,0,0,0,1,0,0,0,0,0,0,0,0,0,0,0,0,0,0,0,0,0,0,0,0],"id":16,"left_children":[1,3,5,7,9,11,13,15,17,19,21,23,25,27,29,-1,-1,-1,-1,-1,-1,-1,-1,-1,-1,-1,-1,-1,-1,-1,-1],"loss_changes":[6.3524106E5,6.2008094E4,9.2516375E4,5.1741562E3,9.746852E3,1.1933783E4,1.8912344E4,3.8440625E2,3.3364062E2,1.2212188E3,1.3500078E3,1.1756394E3,1.8293047E3,1.9278906E3,3.7505312E3,0E0,0E0,0E0,0E0,0E0,0E0,0E0,0E0,0E0,0E0,0E0,0E0,0E0,0E0,0E0,0E0],"parents":[2147483647,0,0,1,1,2,2,3,3,4,4,5,5,6,6,7,7,8,8,9,9,10,10,11,11,12,12,13,13,14,14],"right_children":[2,4,6,8,10,12,14,16,18,20,22,24,26,28,30,-1,-1,-1,-1,-1,-1,-1,-1,-1,-1,-1,-1,-1,-1,-1,-1],"split_conditions":[4.8886665E1,3.4086666E1,6.543667E1,2.773E1,4.186E1,5.6463333E1,7.439667E1,2.115E1,3.0433332E1,3.781E1,1E-45,5.1696667E1,6.0806667E1,6.93E1,8.266333E1,-5.2343565E-1,-4.7232702E-1,-4.106802E-1,-3.5452428E-1,-2.9643092E-1,-2.2540316E-1,-8.691341E-2,-1.6331384E-1,-1.7247641E-2,5.3889193E-2,1.3372421E-1,2.0669957E-1,2.769035E-1,3.55197E-1,4.676679E-1,6.215884E-1],"split_indices":[23,23,23,23,23,23,23,23,23,23,1,23,23,23,23,0,0,0,0,0,0,0,0,0,0,0,0,0,0,0,0],"split_type":[0,0,0,0,0,0,0,0,0,0,1,0,0,0,0,0,0,0,0,0,0,0,0,0,0,0,0,0,0,0,0],"sum_hessian":[7.5E3,3.338E3,4.162E3,1.524E3,1.814E3,2.166E3,1.996E3,9.38E2,5.86E2,9.37E2,8.77E2,9.08E2,1.258E3,1.204E3,7.92E2,3.81E2,5.57E2,2.34E2,3.52E2,4.11E2,5.26E2,5.28E2,3.49E2,3.25E2,5.83E2,6.15E2,6.43E2,5.59E2,6.45E2,5.85E2,2.07E2],"tree_param":{"num_deleted":"0","num_feature":"27","num_nodes":"31","size_leaf_vector":"1"}},{"base_weights":[-1.4725774E-4,-9.967477E0,7.994283E0,-1.4528406E1,-6.1297436E0,3.601159E0,1.275733E1,-1.5961604E1,-1.2210857E1,-8.305193E0,-3.7985349E0,9.1936815E-1,5.5344768E0,1.0318381E1,1.6447212E1,-4.9257785E-1,-4.3584982E-1,-3.984123E-1,-3.4391874E-1,-2.8108644E-1,-2.1252625E-1,-8.431091E-2,-1.584284E-1,-1.6731841E-2,5.2275255E-2,1.2971899E-1,2.005082E-1,2.7570093E-1,3.522815E-1,4.421702E-1,5.784177E-1],"categories":[0],"categories_nodes":[10],"categories_segments":[0],"categories_sizes":[1],"default_left":[0,0,0,0,0,0,0,0,0,0,1,0,0,0,0,0,0,0,0,0,0,0,0,0,0,0,0,0,0,0,0],"id":17,"left_children":[1,3,5,7,9,11,13,15,17,19,21,23,25,27,29,-1,-1,-1,-1,-1,-1,-1,-1,-1,-1,-1,-1,-1,-1,-1,-1],"loss_changes":[5.9778294E5,5.835353E4,8.706175E4,4.8675625E3,9.171875E3,1.1229631E4,1.77995E4,3.7429688E2,3.141953E2,1.1509727E3,1.2705117E3,1.1063048E3,1.7213086E3,1.8266016E3,3.5505469E3,0E0,0E0,0E0,0E0,0E0,0E0,0E0,0E0,0E0,0E0,0E0,0E0,0E0,0E0,0E0,0E0],"parents":[2147483647,0,0,1,1,2,2,3,3,4,4,5,5,6,6,7,7,8,8,9,9,10,10,11,11,12,12,13,13,14,14],"right_children":[2,4,6,8,10,12,14,16,18,20,22,24,26,28,30,-1,-1,-1,-1,-1,-1,-1,-1,-1,-1,-1,-1,-1,-1,-1,-1],"split_conditions":[4.8886665E1,3.4086666E1,6.543667E1,2.773E1,4.186E1,5.6463333E1,7.439667E1,2.4963333E1,3.0433332E1,3.856E1,1E-45,5.1696667E1,6.0806667E1,7.022667E1,8.09E1,-4.9257785E-1,-4.3584982E-1,-3.984123E-1,-3.4391874E-1,-2.8108644E-1,-2.1252625E-1,-8.431091E-2,-1.584284E-1,-1.6731841E-2,5.2275255E-2,1.2971899E-1,2.005082E-1,2.7570093E-1,3.522815E-1,4.421702E-1,5.784177E-1],"split_indices":[23,23,23,23,23,23,23,23,23,23,1,23,23,23,23,0,0,0,0,0,0,0,0,0,0,0,0,0,0,0,0],"split_type":[0,0,0,0,0,0,0,0,0,0,1,0,0,0,0,0,0,0,0,0,0,0,0,0,0,0,0,0,0,0,0],"sum_hessian":[7.5E3,3.338E3,4.162E3,1.524E3,1.814E3,2.166E3,1.996E3,9.38E2,5.86E2,9.37E2,8.77E2,9.08E2,1.258E3,1.204E3,7.92E2,7.03E2,2.35E2,2.34E2,3.52E2,4.97E2,4.4E2,5.28E2,3.49E2,3.25E2,5.83E2,6.15E2,6.43E2,6.76E2,5.28E2,4.98E2,2.94E2],"tree_param":{"num_deleted":"0","num_feature":"27","num_nodes":"31","size_leaf_vector":"1"}},{"base_weights":[-1.9572744E-4,-9.151618E0,8.193978E0,-1.3222015E1,-4.5760217E0,4.5621333E0,1.3151603E1,-1.5422849E1,-1.0861081E1,-6.5805902E0,-2.34535E0,2.1085525E0,6.56537E0,1.1282764E1,1.716047E1,-4.778216E-1,-4.2071745E-1,-3.6286095E-1,-2.9008204E-1,-1.2967223E-1,-2.138303E-1,-4.0012754E-2,-1.18676364E-1,2.6029002E-2,9.4750986E-2,1.6404568E-1,2.3835298E-1,3.05139E-1,3.8581556E-1,4.8481995E-1,6.5603155E-1],"categories":[0,2,0],"categories_nodes":[9,10],"categories_segments":[0,2],"categories_sizes":[2,1],"default_left":[0,0,0,0,0,0,0,0,0,1,1,0,0,0,0,0,0,0,0,0,0,0,0,0,0,0,0,0,0,0,0],"id":18,"left_children":[1,3,5,7,9,11,13,15,17,19,21,23,25,27,29,-1,-1,-1,-1,-1,-1,-1,-1,-1,-1,-1,-1,-1,-1,-1,-1],"loss_changes":[5.6256275E5,6.594291E4,7.120328E4,9.572406E3,7.4511367E3,1.1221215E4,1.2337531E4,4.56875E2,1.2164219E3,1.0539805E3,1.284519E3,1.3373701E3,1.8595898E3,1.8730469E3,2.1371406E3,0E0,0E0,0E0,0E0,0E0,0E0,0E0,0E0,0E0,0E0,0E0,0E0,0E0,0E0,0E0,0E0],"parents":[2147483647,0,0,1,1,2,2,3,3,4,4,5,5,6,6,7,7,8,8,9,9,10,10,11,11,12,12,13,13,14,14],"right_children":[2,4,6,8,10,12,14,16,18,20,22,24,26,28,30,-1,-1,-1,-1,-1,-1,-1,-1,-1,-1,-1,-1,-1,-1,-1,-1],"split_conditions":[5.0633335E1,3.726E1,6.771E1,2.8023333E1,4.4073334E1,5.878E1,7.730334E1,2.4963333E1,3.3013332E1,1E-45,1E-45,5.4713333E1,6.379E1,7.2526665E1,8.6293335E1,-4.778216E-1,-4.2071745E-1,-3.6286095E-1,-2.9008204E-1,-1.2967223E-1,-2.138303E-1,-4.0012754E-2,-1.18676364E-1,2.6029002E-2,9.4750986E-2,1.6404568E-1,2.3835298E-1,3.05139E-1,3.8581556E-1,4.8481995E-1,6.5603155E-1],"split_indices":[23,23,23,23,23,23,23,23,23,5,1,23,23,23,23,0,0,0,0,0,0,0,0,0,0,0,0,0,0,0,0],"split_type":[0,0,0,0,0,0,0,0,0,1,1,0,0,0,0,0,0,0,0,0,0,0,0,0,0,0,0,0,0,0,0],"sum_hessian":[7.5E3,3.543E3,3.957E3,1.874E3,1.669E3,2.285E3,1.672E3,9.67E2,9.07E2,8.78E2,7.91E2,1.028E3,1.257E3,1.143E3,5.29E2,7.03E2,2.64E2,4.41E2,4.66E2,1.73E2,7.05E2,4.87E2,3.04E2,4.72E2,5.56E2,7.03E2,5.54E2,6.75E2,4.68E2,4.4E2,8.9E1],"tree_param":{"num_deleted":"0","num_feature":"27","num_nodes":"31","size_leaf_vector":"1"}},{"base_weights":[-1.4935859E-4,-9.382597E0,7.5251675E0,-1.3673559E1,-5.7720194E0,3.391269E0,1.2007156E1,-1.5020728E1,-1.1495084E1,-7.822679E0,-3.5745354E0,8.6965615E-1,5.2091045E0,9.708702E0,1.5484497E1,-4.787379E-1,-4.3056098E-1,-3.754571E-1,-3.234929E-1,-2.6474726E-1,-2.001883E-1,-7.928412E-2,-1.4916846E-1,4.3961614E-2,-2.7785296E-2,1.2201716E-1,1.887924E-1,2.5237635E-1,3.2451364E-1,4.2662582E-1,5.6908876E-1],"categories":[0,0],"categories_nodes":[10,11],"categories_segments":[0,1],"categories_sizes":[1,1],"default_left":[0,0,0,0,0,0,0,0,0,0,1,1,0,0,0,0,0,0,0,0,0,0,0,0,0,0,0,0,0,0,0],"id":19,"left_children":[1,3,5,7,9,11,13,15,17,19,21,23,25,27,29,-1,-1,-1,-1,-1,-1,-1,-1,-1,-1,-1,-1,-1,-1,-1,-1],"loss_changes":[5.296856E5,5.164975E4,7.709016E4,4.3002188E3,8.1498203E3,9.928119E3,1.5808219E4,3.5640625E2,2.8907812E2,1.02041797E3,1.1295391E3,9.738897E2,1.5317031E3,1.6382812E3,3.2192188E3,0E0,0E0,0E0,0E0,0E0,0E0,0E0,0E0,0E0,0E0,0E0,0E0,0E0,0E0,0E0,0E0],"parents":[2147483647,0,0,1,1,2,2,3,3,4,4,5,5,6,6,7,7,8,8,9,9,10,10,11,11,12,12,13,13,14,14],"right_children":[2,4,6,8,10,12,14,16,18,20,22,24,26,28,30,-1,-1,-1,-1,-1,-1,-1,-1,-1,-1,-1,-1,-1,-1,-1,-1],"split_conditions":[4.8886665E1,3.4086666E1,6.543667E1,2.773E1,4.186E1,5.6463333E1,7.439667E1,2.115E1,3.0433332E1,3.856E1,1E-45,1E-45,6.0806667E1,6.93E1,8.266333E1,-4.787379E-1,-4.3056098E-1,-3.754571E-1,-3.234929E-1,-2.6474726E-1,-2.001883E-1,-7.928412E-2,-1.4916846E-1,4.3961614E-2,-2.7785296E-2,1.2201716E-1,1.887924E-1,2.5237635E-1,3.2451364E-1,4.2662582E-1,5.6908876E-1],"split_indices":[23,23,23,23,23,23,23,23,23,23,1,1,23,23,23,0,0,0,0,0,0,0,0,0,0,0,0,0,0,0,0],"split_type":[0,0,0,0,0,0,0,0,0,0,1,1,0,0,0,0,0,0,0,0,0,0,0,0,0,0,0,0,0,0,0],"sum_hessian":[7.5E3,3.338E3,4.162E3,1.524E3,1.814E3,2.166E3,1.996E3,9.38E2,5.86E2,9.37E2,8.77E2,9.08E2,1.258E3,1.204E3,7.92E2,3.81E2,5.57E2,2.34E2,3.52E2,4.97E2,4.4E2,5.28E2,3.49E2,6.82E2,2.26E2,6.15E2,6.43E2,5.59E2,6.45E2,5.85E2,2.07E2],"tree_param":{"num_deleted":"0","num_feature":"27","num_nodes":"31","size_leaf_vector":"1"}},{"base_weights":[-1.9845788E-4,-8.473781E0,7.842624E0,-1.2313528E1,-4.0199647E0,4.824841E0,1.2997552E1,-1.4096816E1,-9.559327E0,-5.7848577E0,-1.7644212E0,2.6752489E0,7.0668297E0,1.1354675E1,1.6673685E1,-4.4733518E-1,-3.7651393E-1,-3.138156E-1,-2.629123E-1,-2.057067E-1,-1.4489801E-1,-2.3943633E-2,-1.045496E-1,4.150361E-2,1.1684277E-1,1.7199153E-1,2.372447E-1,3.1041503E-1,3.829725E-1,4.6832377E-1,6.196863E-1],"categories":[0],"categories_nodes":[10],"categories_segments":[0],"categories_sizes":[1],"default_left":[0,0,0,0,0,0,0,0,0,0,1,0,0,0,0,0,0,0,0,0,0,0,0,0,0,0,0,0,0,0,0],"id":20,"left_children":[1,3,5,7,9,11,13,15,17,19,21,23,25,27,29,-1,-1,-1,-1,-1,-1,-1,-1,-1,-1,-1,-1,-1,-1,-1,-1],"loss_changes":[4.98559E5,6.1616984E4,6.054347E4,9.371594E3,6.6409434E3,1.183093E4,8.4925625E3,1.28725E3,4.5417188E2,9.2492773E2,1.2187883E3,1.9743086E3,1.3032383E3,1.2829922E3,1.5448906E3,0E0,0E0,0E0,0E0,0E0,0E0,0E0,0E0,0E0,0E0,0E0,0E0,0E0,0E0,0E0,0E0],"parents":[2147483647,0,0,1,1,2,2,3,3,4,4,5,5,6,6,7,7,8,8,9,9,10,10,11,11,12,12,13,13,14,14],"right_children":[2,4,6,8,10,12,14,16,18,20,22,24,26,28,30,-1,-1,-1,-1,-1,-1,-1,-1,-1,-1,-1,-1,-1,-1,-1,-1],"split_conditions":[5.1156666E1,3.781E1,6.93E1,3.0433332E1,4.496E1,6.0806667E1,7.844E1,2.5663334E1,3.4086666E1,4.1146667E1,1E-45,5.6196667E1,6.421E1,7.381E1,8.6293335E1,-4.4733518E-1,-3.7651393E-1,-3.138156E-1,-2.629123E-1,-2.057067E-1,-1.4489801E-1,-2.3943633E-2,-1.045496E-1,4.150361E-2,1.1684277E-1,1.7199153E-1,2.372447E-1,3.1041503E-1,3.829725E-1,4.6832377E-1,6.196863E-1],"split_indices":[23,23,23,23,23,23,23,23,23,23,1,23,23,23,23,0,0,0,0,0,0,0,0,0,0,0,0,0,0,0,0],"split_type":[0,0,0,0,0,0,0,0,0,0,1,0,0,0,0,0,0,0,0,0,0,0,0,0,0,0,0,0,0,0,0],"sum_hessian":[7.5E3,3.605E3,3.895E3,1.935E3,1.67E3,2.458E3,1.437E3,1.172E3,7.63E2,9.36E2,7.34E2,1.256E3,1.202E3,9.96E2,4.41E2,7.62E2,4.1E2,3.52E2,4.11E2,4.38E2,4.98E2,4.71E2,2.63E2,6.11E2,6.45E2,4.68E2,7.34E2,5.86E2,4.1E2,3.52E2,8.9E1],"tree_param":{"num_deleted":"0","num_feature":"27","num_nodes":"31","size_leaf_vector":"1"}},{"base_weights":[-1.2949582E-4,-8.831905E0,7.0835123E0,-1.286723E1,-5.4364223E0,3.1931598E0,1.1301444E1,-1.4137494E1,-1.081315E1,-7.300871E0,-3.2968864E0,8.2675344E-1,4.899093E0,9.138158E0,1.4574281E1,-4.4930118E-1,-4.0367064E-1,-3.529939E-1,-3.0442777E-1,-2.4924561E-1,-1.866716E-1,-7.206118E-2,-1.3931045E-1,4.184365E-2,-2.6566729E-2,1.14862956E-1,1.7745367E-1,2.4384014E-1,3.1240383E-1,4.1157973E-1,5.7761997E-1],"categories":[0,0],"categories_nodes":[10,11],"categories_segments":[0,1],"categories_sizes":[1,1],"default_left":[0,0,0,0,0,0,0,0,0,0,1,1,0,0,0,0,0,0,0,0,0,0,0,0,0,0,0,0,0,0,0],"id":21,"left_children":[1,3,5,7,9,11,13,15,17,19,21,23,25,27,29,-1,-1,-1,-1,-1,-1,-1,-1,-1,-1,-1,-1,-1,-1,-1,-1],"loss_changes":[4.6933384E5,4.5678766E4,6.827414E4,3.8237344E3,7.215008E3,8.743406E3,1.4003375E4,3.3290625E2,2.5084375E2,9.995469E2,1.0089248E3,8.8542737E2,1.3455234E3,1.4658438E3,2.9052969E3,0E0,0E0,0E0,0E0,0E0,0E0,0E0,0E0,0E0,0E0,0E0,0E0,0E0,0E0,0E0,0E0],"parents":[2147483647,0,0,1,1,2,2,3,3,4,4,5,5,6,6,7,7,8,8,9,9,10,10,11,11,12,12,13,13,14,14],"right_children":[2,4,6,8,10,12,14,16,18,20,22,24,26,28,30,-1,-1,-1,-1,-1,-1,-1,-1,-1,-1,-1,-1,-1,-1,-1,-1],"split_conditions":[4.8886665E1,3.4086666E1,6.543667E1,2.773E1,4.2073334E1,5.6463333E1,7.439667E1,2.1546667E1,3.0433332E1,3.856E1,1E-45,1E-45,6.0806667E1,7.022667E1,8.486E1,-4.4930118E-1,-4.0367064E-1,-3.529939E-1,-3.0442777E-1,-2.4924561E-1,-1.866716E-1,-7.206118E-2,-1.3931045E-1,4.184365E-2,-2.6566729E-2,1.14862956E-1,1.7745367E-1,2.4384014E-1,3.1240383E-1,4.1157973E-1,5.7761997E-1],"split_indices":[23,23,23,23,23,23,23,23,23,23,1,1,23,23,23,0,0,0,0,0,0,0,0,0,0,0,0,0,0,0,0],"split_type":[0,0,0,0,0,0,0,0,0,0,1,1,0,0,0,0,0,0,0,0,0,0,0,0,0,0,0,0,0,0,0],"sum_hessian":[7.5E3,3.338E3,4.162E3,1.524E3,1.814E3,2.166E3,1.996E3,9.38E2,5.86E2,9.68E2,8.46E2,9.08E2,1.258E3,1.204E3,7.92E2,4.11E2,5.27E2,2.34E2,3.52E2,4.97E2,4.71E2,5.1E2,3.36E2,6.82E2,2.26E2,6.15E2,6.43E2,6.76E2,5.28E2,6.73E2,1.19E2],"tree_param":{"num_deleted":"0","num_feature":"27","num_nodes":"31","size_leaf_vector":"1"}},{"base_weights":[-1.6665264E-4,-7.9767694E0,7.3826694E0,-1.15886545E1,-3.7872508E0,4.5426726E0,1.22339E1,-1.3371808E1,-9.150543E0,-5.454205E0,-1.6568785E0,2.5250385E0,6.6470146E0,1.0747485E1,1.5896679E1,-4.2110106E-1,-3.5701984E-1,-3.0999628E-1,-2.5423482E-1,-1.0706187E-1,-1.7902197E-1,-2.2358248E-2,-9.840181E-2,3.9436508E-2,1.10032596E-1,1.6153052E-1,2.2330604E-1,2.9217228E-1,3.620442E-1,4.5149428E-1,6.160553E-1],"categories":[0,2,0],"categories_nodes":[9,10],"categories_segments":[0,2],"categories_sizes":[2,1],"default_left":[0,0,0,0,0,0,0,0,0,1,1,0,0,0,0,0,0,0,0,0,0,0,0,0,0,0,0,0,0,0,0],"id":22,"left_children":[1,3,5,7,9,11,13,15,17,19,21,23,25,27,29,-1,-1,-1,-1,-1,-1,-1,-1,-1,-1,-1,-1,-1,-1,-1,-1],"loss_changes":[4.4179247E5,5.452078E4,5.3619812E4,8.2921875E3,5.9243633E3,1.0422703E4,7.655547E3,9.219844E2,5.6696875E2,8.8440625E2,1.0847313E3,1.7334175E3,1.1685391E3,1.2466719E3,1.3097422E3,0E0,0E0,0E0,0E0,0E0,0E0,0E0,0E0,0E0,0E0,0E0,0E0,0E0,0E0,0E0,0E0],"parents":[2147483647,0,0,1,1,2,2,3,3,4,4,5,5,6,6,7,7,8,8,9,9,10,10,11,11,12,12,13,13,14,14],"right_children":[2,4,6,8,10,12,14,16,18,20,22,24,26,28,30,-1,-1,-1,-1,-1,-1,-1,-1,-1,-1,-1,-1,-1,-1,-1,-1],"split_conditions":[5.1156666E1,3.781E1,6.93E1,2.9896667E1,4.496E1,6.0806667E1,7.8793335E1,2.5663334E1,3.3013332E1,1E-45,1E-45,5.6196667E1,6.421E1,7.381E1,8.760667E1,-4.2110106E-1,-3.5701984E-1,-3.0999628E-1,-2.5423482E-1,-1.0706187E-1,-1.7902197E-1,-2.2358248E-2,-9.840181E-2,3.9436508E-2,1.10032596E-1,1.6153052E-1,2.2330604E-1,2.9217228E-1,3.620442E-1,4.5149428E-1,6.160553E-1],"split_indices":[23,23,23,23,23,23,23,23,23,5,1,23,23,23,23,0,0,0,0,0,0,0,0,0,0,0,0,0,0,0,0],"split_type":[0,0,0,0,0,0,0,0,0,1,1,0,0,0,0,0,0,0,0,0,0,0,0,0,0,0,0,0,0,0,0],"sum_hessian":[7.5E3,3.605E3,3.895E3,1.935E3,1.67E3,2.458E3,1.437E3,1.115E3,8.2E2,9.36E2,7.34E2,1.256E3,1.202E3,1.025E3,4.12E2,7.62E2,3.53E2,2.93E2,5.27E2,2.02E2,7.34E2,4.71E2,2.63E2,6.11E2,6.45E2,4.68E2,7.34E2,5.86E2,4.39E2,3.52E2,6E1],"tree_param":{"num_deleted":"0","num_feature":"27","num_nodes":"31","size_leaf_vector":"1"}},{"base_weights":[-9.322899E-5,-8.313507E0,6.6677876E0,-1.2110256E1,-5.118765E0,3.006598E0,1.0637257E1,-1.3305638E1,-1.0177252E1,-6.878391E0,-3.0995252E0,7.858375E-1,4.6075234E0,8.894379E0,1.4259964E1,-4.2498472E-1,-3.8077536E-1,-3.3212632E-1,-2.8659695E-1,-2.3461324E-1,-1.7608987E-1,-6.770304E-2,-1.3103762E-1,-4.0446958E-3,5.342318E-2,1.0944901E-1,1.6817647E-1,2.3101275E-1,3.0555907E-1,4.0449756E-1,5.6748044E-1],"categories":[0],"categories_nodes":[10],"categories_segments":[0],"categories_sizes":[1],"default_left":[0,0,0,0,0,0,0,0,0,0,1,0,0,0,0,0,0,0,0,0,0,0,0,0,0,0,0,0,0,0,0],"id":23,"left_children":[1,3,5,7,9,11,13,15,17,19,21,23,25,27,29,-1,-1,-1,-1,-1,-1,-1,-1,-1,-1,-1,-1,-1,-1,-1,-1],"loss_changes":[4.1585744E5,4.043714E4,6.0467453E4,3.3860156E3,6.4265703E3,7.7001113E3,1.2479781E4,3.129375E2,2.1951562E2,8.7354297E2,8.948804E2,8.3304663E2,1.1843027E3,2.0020859E3,2.0815156E3,0E0,0E0,0E0,0E0,0E0,0E0,0E0,0E0,0E0,0E0,0E0,0E0,0E0,0E0,0E0,0E0],"parents":[2147483647,0,0,1,1,2,2,3,3,4,4,5,5,6,6,7,7,8,8,9,9,10,10,11,11,12,12,13,13,14,14],"right_children":[2,4,6,8,10,12,14,16,18,20,22,24,26,28,30,-1,-1,-1,-1,-1,-1,-1,-1,-1,-1,-1,-1,-1,-1,-1,-1],"split_conditions":[4.8886665E1,3.4086666E1,6.543667E1,2.773E1,4.2073334E1,5.6463333E1,7.601E1,2.115E1,3.0433332E1,3.856E1,1E-45,5.298E1,6.103E1,7.053E1,8.6293335E1,-4.2498472E-1,-3.8077536E-1,-3.3212632E-1,-2.8659695E-1,-2.3461324E-1,-1.7608987E-1,-6.770304E-2,-1.3103762E-1,-4.0446958E-3,5.342318E-2,1.0944901E-1,1.6817647E-1,2.3101275E-1,3.0555907E-1,4.0449756E-1,5.6748044E-1],"split_indices":[23,23,23,23,23,23,23,23,23,23,1,23,23,23,23,0,0,0,0,0,0,0,0,0,0,0,0,0,0,0,0],"split_type":[0,0,0,0,0,0,0,0,0,0,1,0,0,0,0,0,0,0,0,0,0,0,0,0,0,0,0,0,0,0,0],"sum_hessian":[7.5E3,3.338E3,4.162E3,1.524E3,1.814E3,2.166E3,1.996E3,9.38E2,5.86E2,9.68E2,8.46E2,9.08E2,1.258E3,1.35E3,6.46E2,3.81E2,5.57E2,2.34E2,3.52E2,4.97E2,4.71E2,5.1E2,3.36E2,4.72E2,4.36E2,6.44E2,6.14E2,7.05E2,6.45E2,5.57E2,8.9E1],"tree_param":{"num_deleted":"0","num_feature":"27","num_nodes":"31","size_leaf_vector":"1"}},{"base_weights":[-1.1721668E-4,-8.064717E0,6.468199E0,-1.1747889E1,-4.965543E0,3.158584E0,1.060435E1,-1.3161925E1,-1.02019415E1,-6.913734E0,-3.2460525E0,1.1536326E0,5.0155845E0,9.089859E0,1.4358951E1,-3.9522582E-1,-5.018209E-2,-3.312216E-1,-2.7802336E-1,-1.4002302E-1,-2.168209E-1,-1.2872352E-1,-6.374906E-2,-2.2902575E-3,6.4665824E-2,1.2713164E-1,1.8661198E-1,2.3609494E-1,3.1068504E-1,4.053203E-1,5.506452E-1],"categories":[0,2],"categories_nodes":[9],"categories_segments":[0],"categories_sizes":[2],"default_left":[0,0,0,0,0,0,0,0,0,1,0,0,0,0,0,0,0,0,0,0,0,0,0,0,0,0,0,0,0,0,0],"id":24,"left_children":[1,3,5,7,9,11,13,15,17,19,21,23,25,27,29,-1,-1,-1,-1,-1,-1,-1,-1,-1,-1,-1,-1,-1,-1,-1,-1],"loss_changes":[3.9133734E5,3.805397E4,5.695272E4,3.1970781E3,6.0566094E3,8.609074E3,1.0386781E4,8.825E1,4.7020312E2,5.6390234E2,1.1216504E3,1.3731608E3,1.0981465E3,1.9575312E3,1.5453203E3,0E0,0E0,0E0,0E0,0E0,0E0,0E0,0E0,0E0,0E0,0E0,0E0,0E0,0E0,0E0,0E0],"parents":[2147483647,0,0,1,1,2,2,3,3,4,4,5,5,6,6,7,7,8,8,9,9,10,10,11,11,12,12,13,13,14,14],"right_children":[2,4,6,8,10,12,14,16,18,20,22,24,26,28,30,-1,-1,-1,-1,-1,-1,-1,-1,-1,-1,-1,-1,-1,-1,-1,-1],"split_conditions":[4.8886665E1,3.4086666E1,6.642333E1,2.6063334E1,4.1146667E1,5.7896667E1,7.730334E1,1.12E-1,3.0433332E1,1E-45,4.496E1,5.3256668E1,6.315E1,7.1253334E1,8.6293335E1,-3.9522582E-1,-5.018209E-2,-3.312216E-1,-2.7802336E-1,-1.4002302E-1,-2.168209E-1,-1.2872352E-1,-6.374906E-2,-2.2902575E-3,6.4665824E-2,1.2713164E-1,1.8661198E-1,2.3609494E-1,3.1068504E-1,4.053203E-1,5.506452E-1],"split_indices":[23,23,23,23,23,23,23,13,23,5,23,23,23,23,23,0,0,0,0,0,0,0,0,0,0,0,0,0,0,0,0],"split_type":[0,0,0,0,0,0,0,0,0,1,0,0,0,0,0,0,0,0,0,0,0,0,0,0,0,0,0,0,0,0,0],"sum_hessian":[7.5E3,3.338E3,4.162E3,1.524E3,1.814E3,2.313E3,1.849E3,7.92E2,7.32E2,8.49E2,9.65E2,1.113E3,1.2E3,1.32E3,5.29E2,7.91E2,1E0,3.8E2,3.52E2,1.06E2,7.43E2,4.98E2,4.67E2,5E2,6.13E2,7.32E2,4.68E2,6.76E2,6.44E2,4.4E2,8.9E1],"tree_param":{"num_deleted":"0","num_feature":"27","num_nodes":"31","size_leaf_vector":"1"}},{"base_weights":[-7.78095E-5,-7.283543E0,6.7412148E0,-1.0642616E1,-3.5194907E0,3.9321756E0,1.0838732E1,-1.2207504E1,-8.418365E0,-5.2246375E0,-1.7004141E0,1.8363792E0,5.433737E0,9.458362E0,1.4383582E1,-3.8695374E-1,-3.2999712E-1,-2.8327274E-1,-2.338633E-1,-9.556963E-2,-1.7204358E-1,-2.545403E-2,-9.426846E-2,2.5388425E-2,7.690434E-2,1.3280569E-1,1.9577499E-1,2.5840548E-1,3.2825547E-1,4.090719E-1,5.6488264E-1],"categories":[0,2,0],"categories_nodes":[9,10],"categories_segments":[0,2],"categories_sizes":[2,1],"default_left":[0,0,0,0,0,0,0,0,0,1,1,0,0,0,0,0,0,0,0,0,0,0,0,0,0,0,0,0,0,0,0],"id":25,"left_children":[1,3,5,7,9,11,13,15,17,19,21,23,25,27,29,-1,-1,-1,-1,-1,-1,-1,-1,-1,-1,-1,-1,-1,-1,-1,-1],"loss_changes":[3.6834806E5,4.5554406E4,4.4799203E4,6.5259062E3,5.269674E3,7.2682305E3,7.6124062E3,7.8690625E2,4.286172E2,8.941211E2,1.01036035E3,6.936321E2,1.4511875E3,1.3363359E3,1.2095781E3,0E0,0E0,0E0,0E0,0E0,0E0,0E0,0E0,0E0,0E0,0E0,0E0,0E0,0E0,0E0,0E0],"parents":[2147483647,0,0,1,1,2,2,3,3,4,4,5,5,6,6,7,7,8,8,9,9,10,10,11,11,12,12,13,13,14,14],"right_children":[2,4,6,8,10,12,14,16,18,20,22,24,26,28,30,-1,-1,-1,-1,-1,-1,-1,-1,-1,-1,-1,-1,-1,-1,-1,-1],"split_conditions":[5.1156666E1,3.7496666E1,6.828333E1,2.9896667E1,4.4226665E1,5.878E1,7.844E1,2.4963333E1,3.3013332E1,1E-45,1E-45,5.4713333E1,6.379E1,7.381E1,8.760667E1,-3.8695374E-1,-3.2999712E-1,-2.8327274E-1,-2.338633E-1,-9.556963E-2,-1.7204358E-1,-2.545403E-2,-9.426846E-2,2.5388425E-2,7.690434E-2,1.3280569E-1,1.9577499E-1,2.5840548E-1,3.2825547E-1,4.090719E-1,5.6488264E-1],"split_indices":[23,23,23,23,23,23,23,23,23,5,1,23,23,23,23,0,0,0,0,0,0,0,0,0,0,0,0,0,0,0,0],"split_type":[0,0,0,0,0,0,0,0,0,1,1,0,0,0,0,0,0,0,0,0,0,0,0,0,0,0,0,0,0,0,0],"sum_hessian":[7.5E3,3.605E3,3.895E3,1.904E3,1.701E3,2.312E3,1.583E3,1.115E3,7.89E2,8.77E2,8.24E2,9.66E2,1.346E3,1.142E3,4.41E2,7.03E2,4.12E2,2.93E2,4.96E2,1.77E2,7E2,5.19E2,3.05E2,4.1E2,5.56E2,7.03E2,6.43E2,7.32E2,4.1E2,3.81E2,6E1],"tree_param":{"num_deleted":"0","num_feature":"27","num_nodes":"31","size_leaf_vector":"1"}},{"base_weights":[-2.5039437E-5,-7.5916452E0,6.0889297E0,-1.0709352E1,-4.3474274E0,2.974355E0,9.981328E0,-1.2103351E1,-8.85874E0,-5.814865E0,-2.648534E0,7.727273E-1,4.4718513E0,8.554956E0,1.3517472E1,-3.888646E-1,-3.4571043E-1,-2.8819144E-1,-2.4079965E-1,-1.0582527E-1,-1.872057E-1,-5.352503E-2,-1.1761936E-1,3.864669E-2,-2.4578068E-2,1.0684151E-1,1.6791898E-1,2.220201E-1,2.9259273E-1,3.8613564E-1,5.48214E-1],"categories":[0,2,0,0],"categories_nodes":[9,10,11],"categories_segments":[0,2,3],"categories_sizes":[2,1,1],"default_left":[0,0,0,0,0,0,0,0,0,1,1,1,0,0,0,0,0,0,0,0,0,0,0,0,0,0,0,0,0,0,0],"id":26,"left_children":[1,3,5,7,9,11,13,15,17,19,21,23,25,27,29,-1,-1,-1,-1,-1,-1,-1,-1,-1,-1,-1,-1,-1,-1,-1,-1],"loss_changes":[3.4678038E5,3.3724312E4,5.043775E4,4.281422E3,4.0673164E3,7.625115E3,9.213297E3,3.3007812E2,3.78375E2,8.3118945E2,8.292075E2,7.7088794E2,1.3901387E3,1.7530312E3,1.3908672E3,0E0,0E0,0E0,0E0,0E0,0E0,0E0,0E0,0E0,0E0,0E0,0E0,0E0,0E0,0E0,0E0],"parents":[2147483647,0,0,1,1,2,2,3,3,4,4,5,5,6,6,7,7,8,8,9,9,10,10,11,11,12,12,13,13,14,14],"right_children":[2,4,6,8,10,12,14,16,18,20,22,24,26,28,30,-1,-1,-1,-1,-1,-1,-1,-1,-1,-1,-1,-1,-1,-1,-1,-1],"split_conditions":[4.8886665E1,3.58E1,6.642333E1,2.8023333E1,4.272E1,5.6676666E1,7.730334E1,2.115E1,3.248E1,1E-45,1E-45,1E-45,6.2263332E1,7.1253334E1,8.760667E1,-3.888646E-1,-3.4571043E-1,-2.8819144E-1,-2.4079965E-1,-1.0582527E-1,-1.872057E-1,-5.352503E-2,-1.1761936E-1,3.864669E-2,-2.4578068E-2,1.0684151E-1,1.6791898E-1,2.220201E-1,2.9259273E-1,3.8613564E-1,5.48214E-1],"split_indices":[23,23,23,23,23,23,23,23,23,5,1,1,23,23,23,0,0,0,0,0,0,0,0,0,0,0,0,0,0,0,0],"split_type":[0,0,0,0,0,0,0,0,0,1,1,1,0,0,0,0,0,0,0,0,0,0,0,0,0,0,0,0,0,0,0],"sum_hessian":[7.5E3,3.338E3,4.162E3,1.701E3,1.637E3,2.313E3,1.849E3,9.67E2,7.34E2,8.77E2,7.6E2,9.37E2,1.376E3,1.32E3,5.29E2,3.81E2,5.86E2,3.81E2,3.53E2,1.39E2,7.38E2,4.54E2,3.06E2,7.08E2,2.29E2,7.63E2,6.13E2,6.76E2,6.44E2,4.69E2,6E1],"tree_param":{"num_deleted":"0","num_feature":"27","num_nodes":"31","size_leaf_vector":"1"}},{"base_weights":[-2.3227443E-5,-6.7520065E0,6.4458256E0,-9.965086E0,-3.1502867E0,4.0007677E0,1.0523738E1,-1.1399424E1,-7.7497153E0,-4.687815E0,-1.3294609E0,2.2867167E0,5.7057104E0,9.231364E0,1.3708609E1,-3.6212087E-1,-3.037579E-1,-2.5380692E-1,-2.1365687E-1,-9.1221094E-2,-1.5408655E-1,-1.5695205E-2,-8.4134065E-2,3.841809E-2,9.437551E-2,1.3887559E-1,1.9154206E-1,2.5097942E-1,3.1093973E-1,3.8921356E-1,5.3203714E-1],"categories":[0,2,0],"categories_nodes":[9,10],"categories_segments":[0,2],"categories_sizes":[2,1],"default_left":[0,0,0,0,0,0,0,0,0,1,1,0,0,0,0,0,0,0,0,0,0,0,0,0,0,0,0,0,0,0,0],"id":27,"left_children":[1,3,5,7,9,11,13,15,17,19,21,23,25,27,29,-1,-1,-1,-1,-1,-1,-1,-1,-1,-1,-1,-1,-1,-1,-1,-1],"loss_changes":[3.2650403E5,4.236936E4,3.822414E4,6.061547E3,4.833625E3,7.0027383E3,5.7900312E3,8.7884375E2,2.7898828E2,6.756035E2,9.412992E2,1.0319282E3,8.4871875E2,9.176406E2,9.8864844E2,0E0,0E0,0E0,0E0,0E0,0E0,0E0,0E0,0E0,0E0,0E0,0E0,0E0,0E0,0E0,0E0],"parents":[2147483647,0,0,1,1,2,2,3,3,4,4,5,5,6,6,7,7,8,8,9,9,10,10,11,11,12,12,13,13,14,14],"right_children":[2,4,6,8,10,12,14,16,18,20,22,24,26,28,30,-1,-1,-1,-1,-1,-1,-1,-1,-1,-1,-1,-1,-1,-1,-1,-1],"split_conditions":[5.1696667E1,3.781E1,6.93E1,3.0433332E1,4.496E1,6.0806667E1,7.8793335E1,2.5663334E1,3.4086666E1,1E-45,1E-45,5.6196667E1,6.421E1,7.381E1,8.760667E1,-3.6212087E-1,-3.037579E-1,-2.5380692E-1,-2.1365687E-1,-9.1221094E-2,-1.5408655E-1,-1.5695205E-2,-8.4134065E-2,3.841809E-2,9.437551E-2,1.3887559E-1,1.9154206E-1,2.5097942E-1,3.1093973E-1,3.8921356E-1,5.3203714E-1],"split_indices":[23,23,23,23,23,23,23,23,23,5,1,23,23,23,23,0,0,0,0,0,0,0,0,0,0,0,0,0,0,0,0],"split_type":[0,0,0,0,0,0,0,0,0,1,1,0,0,0,0,0,0,0,0,0,0,0,0,0,0,0,0,0,0,0,0],"sum_hessian":[7.5E3,3.663E3,3.837E3,1.935E3,1.728E3,2.4E3,1.437E3,1.172E3,7.63E2,9.36E2,7.92E2,1.198E3,1.202E3,1.025E3,4.12E2,7.62E2,4.1E2,3.52E2,4.11E2,2.02E2,7.34E2,5.13E2,2.79E2,5.53E2,6.45E2,4.68E2,7.34E2,5.86E2,4.39E2,3.52E2,6E1],"tree_param":{"num_deleted":"0","num_feature":"27","num_nodes":"31","size_leaf_vector":"1"}},{"base_weights":[1.3424978E-5,-7.1462717E0,5.7318287E0,-1.007881E1,-4.09473E0,2.5843222E0,9.144355E0,-1.13916235E1,-8.335977E0,-5.479274E0,-2.4918067E0,6.2677944E-1,3.917135E0,7.5360923E0,1.2074427E1,-3.5980567E-1,-3.1925577E-1,-2.7116984E-1,-2.2660562E-1,-9.9352725E-2,-1.7647049E-1,-5.0340436E-2,-1.1068419E-1,3.433875E-2,-2.8445315E-2,9.154862E-2,1.4337297E-1,1.9688046E-1,2.5780496E-1,3.3599925E-1,4.580253E-1],"categories":[0,2,0,0],"categories_nodes":[9,10,11],"categories_segments":[0,2,3],"categories_sizes":[2,1,1],"default_left":[0,0,0,0,0,0,0,0,0,1,1,1,0,0,0,0,0,0,0,0,0,0,0,0,0,0,0,0,0,0,0],"id":28,"left_children":[1,3,5,7,9,11,13,15,17,19,21,23,25,27,29,-1,-1,-1,-1,-1,-1,-1,-1,-1,-1,-1,-1,-1,-1,-1,-1],"loss_changes":[3.072907E5,2.9837219E4,4.468975E4,3.7972812E3,3.620789E3,5.650874E3,9.317578E3,3.069453E2,3.34375E2,7.466875E2,7.349824E2,7.180035E2,9.4628125E2,1.2719297E3,1.7976406E3,0E0,0E0,0E0,0E0,0E0,0E0,0E0,0E0,0E0,0E0,0E0,0E0,0E0,0E0,0E0,0E0],"parents":[2147483647,0,0,1,1,2,2,3,3,4,4,5,5,6,6,7,7,8,8,9,9,10,10,11,11,12,12,13,13,14,14],"right_children":[2,4,6,8,10,12,14,16,18,20,22,24,26,28,30,-1,-1,-1,-1,-1,-1,-1,-1,-1,-1,-1,-1,-1,-1,-1,-1],"split_conditions":[4.8886665E1,3.58E1,6.543667E1,2.8023333E1,4.272E1,5.6196667E1,7.5543335E1,2.2933332E1,3.248E1,1E-45,1E-45,1E-45,6.0806667E1,7.022667E1,8.411E1,-3.5980567E-1,-3.1925577E-1,-2.7116984E-1,-2.2660562E-1,-9.9352725E-2,-1.7647049E-1,-5.0340436E-2,-1.1068419E-1,3.433875E-2,-2.8445315E-2,9.154862E-2,1.4337297E-1,1.9688046E-1,2.5780496E-1,3.3599925E-1,4.580253E-1],"split_indices":[23,23,23,23,23,23,23,23,23,5,1,1,23,23,23,0,0,0,0,0,0,0,0,0,0,0,0,0,0,0,0],"split_type":[0,0,0,0,0,0,0,0,0,1,1,1,0,0,0,0,0,0,0,0,0,0,0,0,0,0,0,0,0,0,0],"sum_hessian":[7.5E3,3.338E3,4.162E3,1.701E3,1.637E3,2.166E3,1.996E3,9.67E2,7.34E2,8.77E2,7.6E2,8.78E2,1.288E3,1.291E3,7.05E2,5.28E2,4.39E2,3.81E2,3.53E2,1.39E2,7.38E2,4.54E2,3.06E2,6.61E2,2.17E2,6.45E2,6.43E2,6.76E2,6.15E2,5.57E2,1.48E2],"tree_param":{"num_deleted":"0","num_feature":"27","num_nodes":"31","size_leaf_vector":"1"}},{"base_weights":[-0E0,-6.356177E0,6.0680294E0,-9.3811035E0,-2.965364E0,3.767134E0,9.9055E0,-1.0814303E1,-7.4213824E0,-4.41165E0,-1.2525829E0,2.1590068E0,5.366699E0,8.682037E0,1.2920675E1,-3.4297964E-1,-2.92015E-1,-2.5076383E-1,-2.0655508E-1,-8.6154975E-2,-1.4492384E-1,-1.48054E-2,-7.9235606E-2,3.6620095E-2,8.8806406E-2,1.3190763E-1,1.8129061E-1,2.3610617E-1,2.9235405E-1,3.6660624E-1,5.028223E-1],"categories":[0,2,0],"categories_nodes":[9,10],"categories_segments":[0,2],"categories_sizes":[2,1],"default_left":[0,0,0,0,0,0,0,0,0,1,1,0,0,0,0,0,0,0,0,0,0,0,0,0,0,0,0,0,0,0,0],"id":29,"left_children":[1,3,5,7,9,11,13,15,17,19,21,23,25,27,29,-1,-1,-1,-1,-1,-1,-1,-1,-1,-1,-1,-1,-1,-1,-1,-1],"loss_changes":[2.8934812E5,3.755247E4,3.3849406E4,5.3555E3,4.2769346E3,6.1637656E3,5.190375E3,6.3221094E2,3.5360156E2,5.901035E2,8.342423E2,8.973794E2,7.6140625E2,8.0703906E2,9.031875E2,0E0,0E0,0E0,0E0,0E0,0E0,0E0,0E0,0E0,0E0,0E0,0E0,0E0,0E0,0E0,0E0],"parents":[2147483647,0,0,1,1,2,2,3,3,4,4,5,5,6,6,7,7,8,8,9,9,10,10,11,11,12,12,13,13,14,14],"right_children":[2,4,6,8,10,12,14,16,18,20,22,24,26,28,30,-1,-1,-1,-1,-1,-1,-1,-1,-1,-1,-1,-1,-1,-1,-1,-1],"split_conditions":[5.1696667E1,3.781E1,6.93E1,2.9896667E1,4.496E1,6.0806667E1,7.8793335E1,2.4963333E1,3.3013332E1,1E-45,1E-45,5.6196667E1,6.437666E1,7.381E1,8.760667E1,-3.4297964E-1,-2.92015E-1,-2.5076383E-1,-2.0655508E-1,-8.6154975E-2,-1.4492384E-1,-1.48054E-2,-7.9235606E-2,3.6620095E-2,8.8806406E-2,1.3190763E-1,1.8129061E-1,2.3610617E-1,2.9235405E-1,3.6660624E-1,5.028223E-1],"split_indices":[23,23,23,23,23,23,23,23,23,5,1,23,23,23,23,0,0,0,0,0,0,0,0,0,0,0,0,0,0,0,0],"split_type":[0,0,0,0,0,0,0,0,0,1,1,0,0,0,0,0,0,0,0,0,0,0,0,0,0,0,0,0,0,0,0],"sum_hessian":[7.5E3,3.663E3,3.837E3,1.935E3,1.728E3,2.4E3,1.437E3,1.115E3,8.2E2,9.36E2,7.92E2,1.198E3,1.202E3,1.025E3,4.12E2,7.03E2,4.12E2,2.93E2,5.27E2,2.02E2,7.34E2,5.13E2,2.79E2,5.53E2,6.45E2,4.97E2,7.05E2,5.86E2,4.39E2,3.52E2,6E1],"tree_param":{"num_deleted":"0","num_feature":"27","num_nodes":"31","size_leaf_vector":"1"}},{"base_weights":[5.07964E-5,-7.001254E0,5.185263E0,-9.794151E0,-4.4435387E0,2.2303135E0,8.606629E0,-1.0849965E1,-8.340575E0,-5.8505383E0,-3.0727034E0,4.0175658E-1,3.6839745E0,7.1875224E0,1.1556407E1,-3.4536555E-1,-3.0963212E-1,-2.715856E-1,-2.3170303E-1,-1.1836989E-1,-1.8317328E-1,-7.1414724E-2,-1.2131417E-1,2.8369483E-2,-3.5381056E-2,8.720631E-2,1.35922E-1,1.865221E-1,2.4709393E-1,3.2371902E-1,4.4486016E-1],"categories":[0,2,0,0],"categories_nodes":[9,10,11],"categories_segments":[0,2,3],"categories_sizes":[2,1,1],"default_left":[0,0,0,0,0,0,0,0,0,1,1,1,0,0,0,0,0,0,0,0,0,0,0,0,0,0,0,0,0,0,0],"id":30,"left_children":[1,3,5,7,9,11,13,15,17,19,21,23,25,27,29,-1,-1,-1,-1,-1,-1,-1,-1,-1,-1,-1,-1,-1,-1,-1,-1],"loss_changes":[2.723468E5,2.2756906E4,4.355367E4,2.248E3,3.1983086E3,6.14896E3,8.274609E3,1.8721875E2,2.1236719E2,3.7455664E2,5.590928E2,8.834137E2,8.342656E2,1.3221172E3,1.4586875E3,0E0,0E0,0E0,0E0,0E0,0E0,0E0,0E0,0E0,0E0,0E0,0E0,0E0,0E0,0E0,0E0],"parents":[2147483647,0,0,1,1,2,2,3,3,4,4,5,5,6,6,7,7,8,8,9,9,10,10,11,11,12,12,13,13,14,14],"right_children":[2,4,6,8,10,12,14,16,18,20,22,24,26,28,30,-1,-1,-1,-1,-1,-1,-1,-1,-1,-1,-1,-1,-1,-1,-1,-1],"split_conditions":[4.766E1,3.4086666E1,6.543667E1,2.703E1,4.093E1,5.6196667E1,7.601E1,2.115E1,3.0433332E1,1E-45,1E-45,1E-45,6.103E1,7.053E1,8.486E1,-3.4536555E-1,-3.0963212E-1,-2.715856E-1,-2.3170303E-1,-1.1836989E-1,-1.8317328E-1,-7.1414724E-2,-1.2131417E-1,2.8369483E-2,-3.5381056E-2,8.720631E-2,1.35922E-1,1.865221E-1,2.4709393E-1,3.2371902E-1,4.4486016E-1],"split_indices":[23,23,23,23,23,23,23,23,23,5,1,1,23,23,23,0,0,0,0,0,0,0,0,0,0,0,0,0,0,0,0],"split_type":[0,0,0,0,0,0,0,0,0,1,1,1,0,0,0,0,0,0,0,0,0,0,0,0,0,0,0,0,0,0,0],"sum_hessian":[7.5E3,3.191E3,4.309E3,1.524E3,1.667E3,2.313E3,1.996E3,8.79E2,6.45E2,8.21E2,8.46E2,1.025E3,1.288E3,1.35E3,6.46E2,3.81E2,4.98E2,2.93E2,3.52E2,9.9E1,7.22E2,4.96E2,3.5E2,7.63E2,2.62E2,6.74E2,6.14E2,7.05E2,6.45E2,5.27E2,1.19E2],"tree_param":{"num_deleted":"0","num_feature":"27","num_nodes":"31","size_leaf_vector":"1"}},{"base_weights":[1.685546E-5,-5.984405E0,5.7131543E0,-8.831747E0,-2.7926533E0,3.5480802E0,9.324093E0,-1.0355715E1,-7.2058663E0,-4.3056283E0,-1.3380867E0,2.0403004E0,5.047814E0,8.166385E0,1.2177324E1,-3.2575577E-1,-2.8542024E-1,-2.4309905E-1,-1.9470175E-1,-7.972707E-2,-1.4210685E-1,-1.9229101E-2,-7.650982E-2,3.5060532E-2,8.353416E-2,1.22498885E-1,1.6968793E-1,2.2208682E-1,2.749849E-1,3.4534767E-1,4.7485778E-1],"categories":[0,2,0],"categories_nodes":[9,10],"categories_segments":[0,2],"categories_sizes":[2,1],"default_left":[0,0,0,0,0,0,0,0,0,1,1,0,0,0,0,0,0,0,0,0,0,0,0,0,0,0,0,0,0,0,0],"id":31,"left_children":[1,3,5,7,9,11,13,15,17,19,21,23,25,27,29,-1,-1,-1,-1,-1,-1,-1,-1,-1,-1,-1,-1,-1,-1,-1,-1],"loss_changes":[2.5649203E5,3.3272625E4,2.9970922E4,4.7206406E3,3.7987236E3,5.418297E3,4.648539E3,3.1660156E2,5.497969E2,5.886797E2,7.442456E2,7.7406006E2,6.819238E2,7.1365625E2,8.1896484E2,0E0,0E0,0E0,0E0,0E0,0E0,0E0,0E0,0E0,0E0,0E0,0E0,0E0,0E0,0E0,0E0],"parents":[2147483647,0,0,1,1,2,2,3,3,4,4,5,5,6,6,7,7,8,8,9,9,10,10,11,11,12,12,13,13,14,14],"right_children":[2,4,6,8,10,12,14,16,18,20,22,24,26,28,30,-1,-1,-1,-1,-1,-1,-1,-1,-1,-1,-1,-1,-1,-1,-1,-1],"split_conditions":[5.1696667E1,3.781E1,6.93E1,2.8406666E1,4.4226665E1,6.0806667E1,7.8793335E1,2.3993334E1,3.3013332E1,1E-45,1E-45,5.6196667E1,6.421E1,7.381E1,8.760667E1,-3.2575577E-1,-2.8542024E-1,-2.4309905E-1,-1.9470175E-1,-7.972707E-2,-1.4210685E-1,-1.9229101E-2,-7.650982E-2,3.5060532E-2,8.353416E-2,1.22498885E-1,1.6968793E-1,2.2208682E-1,2.749849E-1,3.4534767E-1,4.7485778E-1],"split_indices":[23,23,23,23,23,23,23,23,23,5,1,23,23,23,23,0,0,0,0,0,0,0,0,0,0,0,0,0,0,0,0],"split_type":[0,0,0,0,0,0,0,0,0,1,1,0,0,0,0,0,0,0,0,0,0,0,0,0,0,0,0,0,0,0,0],"sum_hessian":[7.5E3,3.663E3,3.837E3,1.935E3,1.728E3,2.4E3,1.437E3,9.96E2,9.39E2,8.46E2,8.82E2,1.198E3,1.202E3,1.025E3,4.12E2,6.16E2,3.8E2,4.12E2,5.27E2,1.77E2,6.69E2,5.61E2,3.21E2,5.53E2,6.45E2,4.68E2,7.34E2,5.86E2,4.39E2,3.52E2,6E1],"tree_param":{"num_deleted":"0","num_feature":"27","num_nodes":"31","size_leaf_vector":"1"}},{"base_weights":[6.402477E-5,-6.3342075E0,5.0805907E0,-8.930973E0,-3.6320522E0,2.66187E0,8.5693655E0,-1.0132342E1,-7.4426007E0,-4.8619804E0,-2.2081246E0,9.9491775E-1,4.185274E0,7.4753685E0,1.1675809E1,-3.252846E-1,-2.888286E-1,-2.4172164E-1,-2.0122546E-1,-8.731003E-2,-1.5674987E-1,-4.4635504E-2,-9.804341E-2,-2.2250703E-3,5.35776E-2,1.0219881E-1,1.5083562E-1,1.9806427E-1,2.571046E-1,3.316928E-1,4.608455E-1],"categories":[0,2,0],"categories_nodes":[9,10],"categories_segments":[0,2],"categories_sizes":[2,1],"default_left":[0,0,0,0,0,0,0,0,0,1,1,0,0,0,0,0,0,0,0,0,0,0,0,0,0,0,0,0,0,0,0],"id":32,"left_children":[1,3,5,7,9,11,13,15,17,19,21,23,25,27,29,-1,-1,-1,-1,-1,-1,-1,-1,-1,-1,-1,-1,-1,-1,-1,-1],"loss_changes":[2.41425E5,2.339561E4,3.5105008E4,2.9661562E3,2.8572344E3,6.2423438E3,5.701742E3,2.3028125E2,2.897422E2,6.0602344E2,5.756726E2,9.947883E2,8.2508203E2,1.1493281E3,8.3653906E2,0E0,0E0,0E0,0E0,0E0,0E0,0E0,0E0,0E0,0E0,0E0,0E0,0E0,0E0,0E0,0E0],"parents":[2147483647,0,0,1,1,2,2,3,3,4,4,5,5,6,6,7,7,8,8,9,9,10,10,11,11,12,12,13,13,14,14],"right_children":[2,4,6,8,10,12,14,16,18,20,22,24,26,28,30,-1,-1,-1,-1,-1,-1,-1,-1,-1,-1,-1,-1,-1,-1,-1,-1],"split_conditions":[4.8886665E1,3.58E1,6.745E1,2.773E1,4.272E1,5.8376667E1,7.844E1,2.115E1,3.248E1,1E-45,1E-45,5.3256668E1,6.315E1,7.2526665E1,8.760667E1,-3.252846E-1,-2.888286E-1,-2.4172164E-1,-2.0122546E-1,-8.731003E-2,-1.5674987E-1,-4.4635504E-2,-9.804341E-2,-2.2250703E-3,5.35776E-2,1.0219881E-1,1.5083562E-1,1.9806427E-1,2.571046E-1,3.316928E-1,4.608455E-1],"split_indices":[23,23,23,23,23,23,23,23,23,5,1,23,23,23,23,0,0,0,0,0,0,0,0,0,0,0,0,0,0,0,0],"split_type":[0,0,0,0,0,0,0,0,0,1,1,0,0,0,0,0,0,0,0,0,0,0,0,0,0,0,0,0,0,0,0],"sum_hessian":[7.5E3,3.338E3,4.162E3,1.701E3,1.637E3,2.459E3,1.703E3,9.38E2,7.63E2,8.77E2,7.6E2,1.175E3,1.284E3,1.262E3,4.41E2,3.81E2,5.57E2,4.1E2,3.53E2,1.39E2,7.38E2,4.54E2,3.06E2,5E2,6.75E2,6.7E2,6.14E2,7.06E2,5.56E2,3.81E2,6E1],"tree_param":{"num_deleted":"0","num_feature":"27","num_nodes":"31","size_leaf_vector":"1"}},{"base_weights":[7.5198055E-5,-6.3961205E0,4.7371416E0,-8.942927E0,-4.0637608E0,2.0400739E0,7.8599153E0,-1.0030631E1,-7.753853E0,-5.4491987E0,-2.8923995E0,3.7809983E-1,3.361288E0,6.5171547E0,1.04740715E1,-3.012662E-1,-1.1434627E-2,-2.51699E-1,-2.1135098E-1,-1.0851303E-1,-1.7056823E-1,-6.731565E-2,-1.1388627E-1,2.6730275E-2,-3.33879E-2,8.236176E-2,1.2765057E-1,1.690057E-1,2.2298835E-1,2.8451067E-1,3.7969068E-1],"categories":[0,2,0,0],"categories_nodes":[9,10,11],"categories_segments":[0,2,3],"categories_sizes":[2,1,1],"default_left":[0,0,0,0,0,0,0,0,0,1,1,1,0,0,0,0,0,0,0,0,0,0,0,0,0,0,0,0,0,0,0],"id":33,"left_children":[1,3,5,7,9,11,13,15,17,19,21,23,25,27,29,-1,-1,-1,-1,-1,-1,-1,-1,-1,-1,-1,-1,-1,-1,-1,-1],"loss_changes":[2.2730447E5,1.8923055E4,3.628322E4,1.8928203E3,2.6903145E3,5.079491E3,6.939883E3,8.371094E1,2.6984766E2,3.0897852E2,5.2193994E2,7.856164E2,6.9714355E2,1.0266133E3,1.3387891E3,0E0,0E0,0E0,0E0,0E0,0E0,0E0,0E0,0E0,0E0,0E0,0E0,0E0,0E0,0E0,0E0],"parents":[2147483647,0,0,1,1,2,2,3,3,4,4,5,5,6,6,7,7,8,8,9,9,10,10,11,11,12,12,13,13,14,14],"right_children":[2,4,6,8,10,12,14,16,18,20,22,24,26,28,30,-1,-1,-1,-1,-1,-1,-1,-1,-1,-1,-1,-1,-1,-1,-1,-1],"split_conditions":[4.766E1,3.4086666E1,6.543667E1,2.6063334E1,4.0536667E1,5.6196667E1,7.576E1,1.12E-1,3.0433332E1,1E-45,1E-45,1E-45,6.178E1,7.022667E1,8.266333E1,-3.012662E-1,-1.1434627E-2,-2.51699E-1,-2.1135098E-1,-1.0851303E-1,-1.7056823E-1,-6.731565E-2,-1.1388627E-1,2.6730275E-2,-3.33879E-2,8.236176E-2,1.2765057E-1,1.690057E-1,2.2298835E-1,2.8451067E-1,3.7969068E-1],"split_indices":[23,23,23,23,23,23,23,13,23,5,1,1,23,23,23,0,0,0,0,0,0,0,0,0,0,0,0,0,0,0,0],"split_type":[0,0,0,0,0,0,0,0,0,1,1,1,0,0,0,0,0,0,0,0,0,0,0,0,0,0,0,0,0,0,0],"sum_hessian":[7.5E3,3.191E3,4.309E3,1.524E3,1.667E3,2.313E3,1.996E3,7.92E2,7.32E2,7.62E2,9.05E2,1.025E3,1.288E3,1.321E3,6.75E2,7.91E2,1E0,3.8E2,3.52E2,8.9E1,6.73E2,5.29E2,3.76E2,7.63E2,2.62E2,7.65E2,5.23E2,6.76E2,6.45E2,4.68E2,2.07E2],"tree_param":{"num_deleted":"0","num_feature":"27","num_nodes":"31","size_leaf_vector":"1"}},{"base_weights":[7.4357915E-5,-5.4664445E0,5.2187886E0,-8.068275E0,-2.549897E0,3.2411292E0,8.517148E0,-9.2216625E0,-6.2867417E0,-3.9333813E0,-1.2198164E0,1.8686724E0,4.606245E0,7.455853E0,1.1132819E1,-2.9315206E-1,-2.4533394E-1,-1.7760994E-1,-2.1730803E-1,-7.281367E-2,-1.2982595E-1,-1.7415266E-2,-6.9945835E-2,3.3619422E-2,7.723929E-2,1.1184438E-1,1.5480459E-1,2.0270778E-1,2.5113338E-1,3.2050556E-1,4.843595E-1],"categories":[0,0,2,0],"categories_nodes":[8,9,10],"categories_segments":[0,1,3],"categories_sizes":[1,2,1],"default_left":[0,0,0,0,0,0,0,0,1,1,1,0,0,0,0,0,0,0,0,0,0,0,0,0,0,0,0,0,0,0,0],"id":34,"left_children":[1,3,5,7,9,11,13,15,17,19,21,23,25,27,29,-1,-1,-1,-1,-1,-1,-1,-1,-1,-1,-1,-1,-1,-1,-1,-1],"loss_changes":[2.1401853E5,2.778211E4,2.5006617E4,3.9185703E3,3.1762988E3,4.489168E3,3.9070234E3,5.9183594E2,2.2366016E2,4.916787E2,6.259259E2,6.299175E2,5.649961E2,5.982539E2,7.5495703E2,0E0,0E0,0E0,0E0,0E0,0E0,0E0,0E0,0E0,0E0,0E0,0E0,0E0,0E0,0E0,0E0],"parents":[2147483647,0,0,1,1,2,2,3,3,4,4,5,5,6,6,7,7,8,8,9,9,10,10,11,11,12,12,13,13,14,14],"right_children":[2,4,6,8,10,12,14,16,18,20,22,24,26,28,30,-1,-1,-1,-1,-1,-1,-1,-1,-1,-1,-1,-1,-1,-1,-1,-1],"split_conditions":[5.1696667E1,3.781E1,6.93E1,3.0433332E1,4.4226665E1,6.0806667E1,7.8793335E1,2.5663334E1,1E-45,1E-45,1E-45,5.6463333E1,6.421E1,7.381E1,8.985667E1,-2.9315206E-1,-2.4533394E-1,-1.7760994E-1,-2.1730803E-1,-7.281367E-2,-1.2982595E-1,-1.7415266E-2,-6.9945835E-2,3.3619422E-2,7.723929E-2,1.1184438E-1,1.5480459E-1,2.0270778E-1,2.5113338E-1,3.2050556E-1,4.843595E-1],"split_indices":[23,23,23,23,23,23,23,23,1,5,1,23,23,23,23,0,0,0,0,0,0,0,0,0,0,0,0,0,0,0,0],"split_type":[0,0,0,0,0,0,0,0,1,1,1,0,0,0,0,0,0,0,0,0,0,0,0,0,0,0,0,0,0,0,0],"sum_hessian":[7.5E3,3.663E3,3.837E3,1.935E3,1.728E3,2.4E3,1.437E3,1.172E3,7.63E2,8.46E2,8.82E2,1.198E3,1.202E3,1.025E3,4.12E2,7.62E2,4.1E2,5.57E2,2.06E2,1.77E2,6.69E2,5.61E2,3.21E2,5.83E2,6.15E2,4.68E2,7.34E2,5.86E2,4.39E2,3.81E2,3.1E1],"tree_param":{"num_deleted":"0","num_feature":"27","num_nodes":"31","size_leaf_vector":"1"}},{"base_weights":[1.2660162E-4,-6.0218225E0,4.460025E0,-8.419795E0,-3.825762E0,1.9225918E0,7.397962E0,-9.439137E0,-7.30539E0,-5.039574E0,-2.643142E0,4.4186744E-1,3.227115E0,5.9621563E0,9.57028E0,-2.9776576E-1,-2.6895037E-1,-2.3682718E-1,-1.9946563E-1,-1.0171356E-1,-1.5781678E-1,-6.1258297E-2,-1.045979E-1,2.7219502E-2,-2.7960837E-2,7.945099E-2,1.2004902E-1,1.5905736E-1,2.0386976E-1,2.5368598E-1,3.4265983E-1],"categories":[0,2,0,0],"categories_nodes":[9,10,11],"categories_segments":[0,2,3],"categories_sizes":[2,1,1],"default_left":[0,0,0,0,0,0,0,0,0,1,1,1,0,0,0,0,0,0,0,0,0,0,0,0,0,0,0,0,0,0,0],"id":35,"left_children":[1,3,5,7,9,11,13,15,17,19,21,23,25,27,29,-1,-1,-1,-1,-1,-1,-1,-1,-1,-1,-1,-1,-1,-1,-1,-1],"loss_changes":[2.0148317E5,1.677593E4,3.211511E4,1.6617109E3,2.380289E3,4.4680195E3,6.170086E3,9.2E1,2.294375E2,2.8086328E2,4.2182812E2,6.946775E2,5.400879E2,6.258867E2,1.5373516E3,0E0,0E0,0E0,0E0,0E0,0E0,0E0,0E0,0E0,0E0,0E0,0E0,0E0,0E0,0E0,0E0],"parents":[2147483647,0,0,1,1,2,2,3,3,4,4,5,5,6,6,7,7,8,8,9,9,10,10,11,11,12,12,13,13,14,14],"right_children":[2,4,6,8,10,12,14,16,18,20,22,24,26,28,30,-1,-1,-1,-1,-1,-1,-1,-1,-1,-1,-1,-1,-1,-1,-1,-1],"split_conditions":[4.766E1,3.4086666E1,6.543667E1,2.6063334E1,4.093E1,5.6676666E1,7.439667E1,2.115E1,3.0433332E1,1E-45,1E-45,1E-45,6.178E1,7.022667E1,8.09E1,-2.9776576E-1,-2.6895037E-1,-2.3682718E-1,-1.9946563E-1,-1.0171356E-1,-1.5781678E-1,-6.1258297E-2,-1.045979E-1,2.7219502E-2,-2.7960837E-2,7.945099E-2,1.2004902E-1,1.5905736E-1,2.0386976E-1,2.5368598E-1,3.4265983E-1],"split_indices":[23,23,23,23,23,23,23,23,23,5,1,1,23,23,23,0,0,0,0,0,0,0,0,0,0,0,0,0,0,0,0],"split_type":[0,0,0,0,0,0,0,0,0,1,1,1,0,0,0,0,0,0,0,0,0,0,0,0,0,0,0,0,0,0,0],"sum_hessian":[7.5E3,3.191E3,4.309E3,1.524E3,1.667E3,2.313E3,1.996E3,7.92E2,7.32E2,8.21E2,8.46E2,1.084E3,1.229E3,1.204E3,7.92E2,3.81E2,4.11E2,3.8E2,3.52E2,9.9E1,7.22E2,4.96E2,3.5E2,8.1E2,2.74E2,7.06E2,5.23E2,6.76E2,5.28E2,4.98E2,2.94E2],"tree_param":{"num_deleted":"0","num_feature":"27","num_nodes":"31","size_leaf_vector":"1"}},{"base_weights":[8.588261E-5,-5.1470513E0,4.913898E0,-7.595835E0,-2.4020581E0,2.8990648E0,7.779071E0,-8.9410515E0,-6.2440653E0,-3.4584503E0,-8.5893244E-1,1.4219884E0,3.8936183E0,6.8190255E0,1.0484385E1,-2.8885618E-1,-2.5434765E-1,-2.1031068E-1,-1.6771713E-1,-6.507869E-2,-1.1522082E-1,-8.7179355E-3,-5.8269624E-2,5.2298952E-2,7.350665E-4,9.246853E-2,1.3694546E-1,1.7958756E-1,2.2924237E-1,3.0148727E-1,4.6032426E-1],"categories":[0,2,0,0],"categories_nodes":[9,10,11],"categories_segments":[0,2,3],"categories_sizes":[2,1,1],"default_left":[0,0,0,0,0,0,0,0,0,1,1,1,0,0,0,0,0,0,0,0,0,0,0,0,0,0,0,0,0,0,0],"id":36,"left_children":[1,3,5,7,9,11,13,15,17,19,21,23,25,27,29,-1,-1,-1,-1,-1,-1,-1,-1,-1,-1,-1,-1,-1,-1,-1,-1],"loss_changes":[1.8974103E5,2.4609773E4,2.2132562E4,3.463125E3,2.81512E3,3.3065996E3,4.0407812E3,2.2453906E2,4.4478906E2,4.9665332E2,4.3268414E2,4.0794568E2,7.1873047E2,7.555469E2,7.1595703E2,0E0,0E0,0E0,0E0,0E0,0E0,0E0,0E0,0E0,0E0,0E0,0E0,0E0,0E0,0E0,0E0],"parents":[2147483647,0,0,1,1,2,2,3,3,4,4,5,5,6,6,7,7,8,8,9,9,10,10,11,11,12,12,13,13,14,14],"right_children":[2,4,6,8,10,12,14,16,18,20,22,24,26,28,30,-1,-1,-1,-1,-1,-1,-1,-1,-1,-1,-1,-1,-1,-1,-1,-1],"split_conditions":[5.1696667E1,3.781E1,6.828333E1,2.8023333E1,4.5626667E1,5.878E1,7.8793335E1,2.115E1,3.3013332E1,1E-45,1E-45,1E-45,6.315E1,7.2526665E1,8.985667E1,-2.8885618E-1,-2.5434765E-1,-2.1031068E-1,-1.6771713E-1,-6.507869E-2,-1.1522082E-1,-8.7179355E-3,-5.8269624E-2,5.2298952E-2,7.350665E-4,9.246853E-2,1.3694546E-1,1.7958756E-1,2.2924237E-1,3.0148727E-1,4.6032426E-1],"split_indices":[23,23,23,23,23,23,23,23,23,5,1,1,23,23,23,0,0,0,0,0,0,0,0,0,0,0,0,0,0,0,0],"split_type":[0,0,0,0,0,0,0,0,0,1,1,1,0,0,0,0,0,0,0,0,0,0,0,0,0,0,0,0,0,0,0],"sum_hessian":[7.5E3,3.663E3,3.837E3,1.935E3,1.728E3,2.254E3,1.583E3,9.67E2,9.68E2,1.025E3,7.03E2,9.08E2,1.346E3,1.171E3,4.12E2,3.81E2,5.86E2,4.41E2,5.27E2,2.36E2,7.89E2,4.62E2,2.41E2,7.38E2,1.7E2,6.12E2,7.34E2,5.86E2,5.85E2,3.81E2,3.1E1],"tree_param":{"num_deleted":"0","num_feature":"27","num_nodes":"31","size_leaf_vector":"1"}},{"base_weights":[1.2044043E-4,-4.9929647E0,4.766865E0,-7.409306E0,-2.3746564E0,2.9609425E0,7.7787924E0,-8.673385E0,-6.0967927E0,-3.6878765E0,-1.1494389E0,1.7110288E0,4.204156E0,6.8078856E0,1.0171701E1,-2.8021315E-1,-2.4673024E-1,-2.0401561E-1,-1.6375421E-1,-6.7860626E-2,-1.21084824E-1,-1.663975E-2,-6.501342E-2,2.6101245E-2,6.7330725E-2,1.03195235E-1,1.421158E-1,1.8505017E-1,2.2936195E-1,2.9246622E-1,4.46946E-1],"categories":[0,2,0],"categories_nodes":[9,10],"categories_segments":[0,2],"categories_sizes":[2,1],"default_left":[0,0,0,0,0,0,0,0,0,1,1,0,0,0,0,0,0,0,0,0,0,0,0,0,0,0,0,0,0,0,0],"id":37,"left_children":[1,3,5,7,9,11,13,15,17,19,21,23,25,27,29,-1,-1,-1,-1,-1,-1,-1,-1,-1,-1,-1,-1,-1,-1,-1,-1],"loss_changes":[1.7855328E5,2.3162547E4,2.0851953E4,3.1062578E3,2.827082E3,3.7231523E3,3.2699453E3,2.1138281E2,3.830039E2,4.1185645E2,5.505536E2,5.355149E2,4.73E2,5.0101562E2,6.776719E2,0E0,0E0,0E0,0E0,0E0,0E0,0E0,0E0,0E0,0E0,0E0,0E0,0E0,0E0,0E0,0E0],"parents":[2147483647,0,0,1,1,2,2,3,3,4,4,5,5,6,6,7,7,8,8,9,9,10,10,11,11,12,12,13,13,14,14],"right_children":[2,4,6,8,10,12,14,16,18,20,22,24,26,28,30,-1,-1,-1,-1,-1,-1,-1,-1,-1,-1,-1,-1,-1,-1,-1,-1],"split_conditions":[5.1696667E1,3.7496666E1,6.93E1,2.8023333E1,4.4073334E1,6.0806667E1,7.8793335E1,2.115E1,3.3013332E1,1E-45,1E-45,5.552667E1,6.437666E1,7.381E1,8.985667E1,-2.8021315E-1,-2.4673024E-1,-2.0401561E-1,-1.6375421E-1,-6.7860626E-2,-1.21084824E-1,-1.663975E-2,-6.501342E-2,2.6101245E-2,6.7330725E-2,1.03195235E-1,1.421158E-1,1.8505017E-1,2.2936195E-1,2.9246622E-1,4.46946E-1],"split_indices":[23,23,23,23,23,23,23,23,23,5,1,23,23,23,23,0,0,0,0,0,0,0,0,0,0,0,0,0,0,0,0],"split_type":[0,0,0,0,0,0,0,0,0,1,1,0,0,0,0,0,0,0,0,0,0,0,0,0,0,0,0,0,0,0,0],"sum_hessian":[7.5E3,3.663E3,3.837E3,1.904E3,1.759E3,2.4E3,1.437E3,9.67E2,9.37E2,8.48E2,9.11E2,1.198E3,1.202E3,1.025E3,4.12E2,3.81E2,5.86E2,4.41E2,4.96E2,1.68E2,6.8E2,5.76E2,3.35E2,4.66E2,7.32E2,4.97E2,7.05E2,5.86E2,4.39E2,3.81E2,3.1E1],"tree_param":{"num_deleted":"0","num_feature":"27","num_nodes":"31","size_leaf_vector":"1"}},{"base_weights":[1.6013088E-4,-5.5015354E0,4.074757E0,-7.6881166E0,-3.499055E0,1.9126883E0,6.948636E0,-8.661611E0,-6.704416E0,-4.8356967E0,-2.585491E0,6.0795903E-1,3.2809236E0,5.941584E0,9.445366E0,-2.6019767E-1,1.6846332E-3,-2.171363E-1,-1.8192084E-1,-1.0259893E-1,-1.5019536E-1,-5.933135E-2,-1.0280945E-1,-5.785413E-3,4.3568466E-2,8.348106E-2,1.21571556E-1,1.5403673E-1,2.0337845E-1,2.6486227E-1,3.7082303E-1],"categories":[0,2,0],"categories_nodes":[9,10],"categories_segments":[0,2],"categories_sizes":[2,1],"default_left":[0,0,0,0,0,0,0,0,0,1,1,0,0,0,0,0,0,0,0,0,0,0,0,0,0,0,0,0,0,0,0],"id":38,"left_children":[1,3,5,7,9,11,13,15,17,19,21,23,25,27,29,-1,-1,-1,-1,-1,-1,-1,-1,-1,-1,-1,-1,-1,-1,-1,-1],"loss_changes":[1.6817362E5,1.39484375E4,2.676611E4,1.4007656E3,2.0235645E3,4.3909365E3,4.593867E3,7.880859E1,2.154375E2,1.4551074E2,5.0054248E2,8.530176E2,4.4965527E2,8.570547E2,8.4153125E2,0E0,0E0,0E0,0E0,0E0,0E0,0E0,0E0,0E0,0E0,0E0,0E0,0E0,0E0,0E0,0E0],"parents":[2147483647,0,0,1,1,2,2,3,3,4,4,5,5,6,6,7,7,8,8,9,9,10,10,11,11,12,12,13,13,14,14],"right_children":[2,4,6,8,10,12,14,16,18,20,22,24,26,28,30,-1,-1,-1,-1,-1,-1,-1,-1,-1,-1,-1,-1,-1,-1,-1,-1],"split_conditions":[4.766E1,3.4086666E1,6.642333E1,2.5663334E1,3.9863335E1,5.7896667E1,7.730334E1,1.12E-1,3.0433332E1,1E-45,1E-45,5.3256668E1,6.315E1,7.1253334E1,8.6293335E1,-2.6019767E-1,1.6846332E-3,-2.171363E-1,-1.8192084E-1,-1.0259893E-1,-1.5019536E-1,-5.933135E-2,-1.0280945E-1,-5.785413E-3,4.3568466E-2,8.348106E-2,1.21571556E-1,1.5403673E-1,2.0337845E-1,2.6486227E-1,3.7082303E-1],"split_indices":[23,23,23,23,23,23,23,13,23,5,1,23,23,23,23,0,0,0,0,0,0,0,0,0,0,0,0,0,0,0,0],"split_type":[0,0,0,0,0,0,0,0,0,1,1,0,0,0,0,0,0,0,0,0,0,0,0,0,0,0,0,0,0,0,0],"sum_hessian":[7.5E3,3.191E3,4.309E3,1.524E3,1.667E3,2.46E3,1.849E3,7.62E2,7.62E2,6.75E2,9.92E2,1.26E3,1.2E3,1.32E3,5.29E2,7.61E2,1E0,4.1E2,3.52E2,7.5E1,6E2,5.78E2,4.14E2,6.47E2,6.13E2,7.32E2,4.68E2,6.76E2,6.44E2,4.4E2,8.9E1],"tree_param":{"num_deleted":"0","num_feature":"27","num_nodes":"31","size_leaf_vector":"1"}},{"base_weights":[1.7704249E-4,-5.1286206E0,4.1138344E0,-7.2303596E0,-2.94157E0,2.1556816E0,6.938272E0,-8.19716E0,-6.0325127E0,-3.949106E0,-1.7751336E0,8.1171197E-1,3.3838937E0,6.047194E0,9.468574E0,-2.640433E-1,-2.3305814E-1,-1.7209248E-1,-2.121618E-1,-6.9524534E-2,-1.275819E-1,-3.578943E-2,-7.8954756E-2,3.7205465E-2,-1.9751804E-2,8.302601E-2,1.21521376E-1,1.5698662E-1,2.0450068E-1,2.7252686E-1,4.231795E-1],"categories":[0,0,2,0,0],"categories_nodes":[8,9,10,11],"categories_segments":[0,1,3,4],"categories_sizes":[1,2,1,1],"default_left":[0,0,0,0,0,0,0,0,1,1,1,1,0,0,0,0,0,0,0,0,0,0,0,0,0,0,0,0,0,0,0],"id":39,"left_children":[1,3,5,7,9,11,13,15,17,19,21,23,25,27,29,-1,-1,-1,-1,-1,-1,-1,-1,-1,-1,-1,-1,-1,-1,-1,-1],"loss_changes":[1.5827797E5,1.5325797E4,2.3008352E4,1.9201797E3,1.9174385E3,4.0575068E3,3.7831875E3,1.7313281E2,1.933164E2,4.2444824E2,3.7600757E2,7.416327E2,5.1624316E2,7.5452734E2,6.5734766E2,0E0,0E0,0E0,0E0,0E0,0E0,0E0,0E0,0E0,0E0,0E0,0E0,0E0,0E0,0E0,0E0],"parents":[2147483647,0,0,1,1,2,2,3,3,4,4,5,5,6,6,7,7,8,8,9,9,10,10,11,11,12,12,13,13,14,14],"right_children":[2,4,6,8,10,12,14,16,18,20,22,24,26,28,30,-1,-1,-1,-1,-1,-1,-1,-1,-1,-1,-1,-1,-1,-1,-1,-1],"split_conditions":[4.8886665E1,3.58E1,6.745E1,2.773E1,4.272E1,5.8376667E1,7.844E1,2.115E1,1E-45,1E-45,1E-45,1E-45,6.315E1,7.188E1,8.985667E1,-2.640433E-1,-2.3305814E-1,-1.7209248E-1,-2.121618E-1,-6.9524534E-2,-1.275819E-1,-3.578943E-2,-7.8954756E-2,3.7205465E-2,-1.9751804E-2,8.302601E-2,1.21521376E-1,1.5698662E-1,2.0450068E-1,2.7252686E-1,4.231795E-1],"split_indices":[23,23,23,23,23,23,23,23,1,5,1,1,23,23,23,0,0,0,0,0,0,0,0,0,0,0,0,0,0,0,0],"split_type":[0,0,0,0,0,0,0,0,1,1,1,1,0,0,0,0,0,0,0,0,0,0,0,0,0,0,0,0,0,0,0],"sum_hessian":[7.5E3,3.338E3,4.162E3,1.701E3,1.637E3,2.459E3,1.703E3,9.38E2,7.63E2,8.77E2,7.6E2,1.175E3,1.284E3,1.262E3,4.41E2,3.81E2,5.57E2,5.99E2,1.64E2,1.39E2,7.38E2,4.54E2,3.06E2,9.1E2,2.65E2,6.7E2,6.14E2,6.17E2,6.45E2,4.1E2,3.1E1],"tree_param":{"num_deleted":"0","num_feature":"27","num_nodes":"31","size_leaf_vector":"1"}},{"base_weights":[1.8219698E-4,-5.1785226E0,3.835571E0,-7.2379274E0,-3.292509E0,1.6553003E0,6.359963E0,-8.153871E0,-6.312367E0,-4.5536976E0,-2.4305193E0,2.0089492E-1,2.6465294E0,5.2273865E0,8.42346E0,-2.449546E-1,5.155254E-3,-2.0461395E-1,-1.7107858E-1,-9.693635E-2,-1.4139572E-1,-5.5642456E-2,-9.6831776E-2,1.935097E-2,-3.1782504E-2,6.1725195E-2,9.9380694E-2,1.3656868E-1,1.7882061E-1,2.3284654E-1,3.253524E-1],"categories":[0,2,0,0],"categories_nodes":[9,10,11],"categories_segments":[0,2,3],"categories_sizes":[2,1,1],"default_left":[0,0,0,0,0,0,0,0,0,1,1,1,0,0,0,0,0,0,0,0,0,0,0,0,0,0,0,0,0,0,0],"id":40,"left_children":[1,3,5,7,9,11,13,15,17,19,21,23,25,27,29,-1,-1,-1,-1,-1,-1,-1,-1,-1,-1,-1,-1,-1,-1,-1,-1],"loss_changes":[1.4900719E5,1.2373047E4,2.3710293E4,1.2399297E3,1.8015684E3,3.3351582E3,4.6217344E3,7.3875E1,1.9623828E2,1.265625E2,4.4930078E2,5.262487E2,5.325674E2,6.114219E2,1.0456055E3,0E0,0E0,0E0,0E0,0E0,0E0,0E0,0E0,0E0,0E0,0E0,0E0,0E0,0E0,0E0,0E0],"parents":[2147483647,0,0,1,1,2,2,3,3,4,4,5,5,6,6,7,7,8,8,9,9,10,10,11,11,12,12,13,13,14,14],"right_children":[2,4,6,8,10,12,14,16,18,20,22,24,26,28,30,-1,-1,-1,-1,-1,-1,-1,-1,-1,-1,-1,-1,-1,-1,-1,-1],"split_conditions":[4.766E1,3.4086666E1,6.543667E1,2.5663334E1,3.9863335E1,5.552667E1,7.5543335E1,1.12E-1,3.0433332E1,1E-45,1E-45,1E-45,6.0806667E1,7.022667E1,8.411E1,-2.449546E-1,5.155254E-3,-2.0461395E-1,-1.7107858E-1,-9.693635E-2,-1.4139572E-1,-5.5642456E-2,-9.6831776E-2,1.935097E-2,-3.1782504E-2,6.1725195E-2,9.9380694E-2,1.3656868E-1,1.7882061E-1,2.3284654E-1,3.253524E-1],"split_indices":[23,23,23,23,23,23,23,13,23,5,1,1,23,23,23,0,0,0,0,0,0,0,0,0,0,0,0,0,0,0,0],"split_type":[0,0,0,0,0,0,0,0,0,1,1,1,0,0,0,0,0,0,0,0,0,0,0,0,0,0,0,0,0,0,0],"sum_hessian":[7.5E3,3.191E3,4.309E3,1.524E3,1.667E3,2.313E3,1.996E3,7.62E2,7.62E2,6.75E2,9.92E2,9.38E2,1.375E3,1.291E3,7.05E2,7.61E2,1E0,4.1E2,3.52E2,7.5E1,6E2,5.78E2,4.14E2,6.94E2,2.44E2,7.32E2,6.43E2,6.76E2,6.15E2,5.57E2,1.48E2],"tree_param":{"num_deleted":"0","num_feature":"27","num_nodes":"31","size_leaf_vector":"1"}},{"base_weights":[1.7789025E-4,-4.4263897E0,4.226088E0,-6.567112E0,-2.1067295E0,2.6259828E0,6.894744E0,-7.5561485E0,-5.254724E0,-3.2779908E0,-1.0139582E0,1.6305454E0,3.835822E0,6.1926346E0,9.593789E0,-2.4132791E-1,-2.068881E-1,-1.4664619E-1,-1.8779744E-1,-6.0075767E-2,-1.0768667E-1,-1.461331E-2,-5.746136E-2,2.852288E-2,6.652497E-2,1.2717427E-1,9.17891E-2,1.6370781E-1,2.0865902E-1,2.7294102E-1,4.014252E-1],"categories":[0,0,2,0,0],"categories_nodes":[8,9,10,12],"categories_segments":[0,1,3,4],"categories_sizes":[1,2,1,1],"default_left":[0,0,0,0,0,0,0,0,1,1,1,0,1,0,0,0,0,0,0,0,0,0,0,0,0,0,0,0,0,0,0],"id":41,"left_children":[1,3,5,7,9,11,13,15,17,19,21,23,25,27,29,-1,-1,-1,-1,-1,-1,-1,-1,-1,-1,-1,-1,-1,-1,-1,-1],"loss_changes":[1.4033448E5,1.8179797E4,1.6369695E4,2.4316953E3,2.2489082E3,2.8847695E3,2.6640547E3,2.921836E2,2.7112695E2,3.2963574E2,4.319461E2,5.238567E2,3.2533496E2,6.026992E2,4.2986133E2,0E0,0E0,0E0,0E0,0E0,0E0,0E0,0E0,0E0,0E0,0E0,0E0,0E0,0E0,0E0,0E0],"parents":[2147483647,0,0,1,1,2,2,3,3,4,4,5,5,6,6,7,7,8,8,9,9,10,10,11,11,12,12,13,13,14,14],"right_children":[2,4,6,8,10,12,14,16,18,20,22,24,26,28,30,-1,-1,-1,-1,-1,-1,-1,-1,-1,-1,-1,-1,-1,-1,-1,-1],"split_conditions":[5.1696667E1,3.7496666E1,6.93E1,2.9473333E1,4.4073334E1,6.178E1,8.09E1,2.3993334E1,1E-45,1E-45,1E-45,5.6676666E1,1E-45,7.381E1,8.985667E1,-2.4132791E-1,-2.068881E-1,-1.4664619E-1,-1.8779744E-1,-6.0075767E-2,-1.0768667E-1,-1.461331E-2,-5.746136E-2,2.852288E-2,6.652497E-2,1.2717427E-1,9.17891E-2,1.6370781E-1,2.0865902E-1,2.7294102E-1,4.014252E-1],"split_indices":[23,23,23,23,23,23,23,23,1,5,1,23,1,23,23,0,0,0,0,0,0,0,0,0,0,0,0,0,0,0,0],"split_type":[0,0,0,0,0,0,0,0,1,1,1,0,1,0,0,0,0,0,0,0,0,0,0,0,0,0,0,0,0,0,0],"sum_hessian":[7.5E3,3.663E3,3.837E3,1.904E3,1.759E3,2.4E3,1.437E3,1.083E3,8.21E2,8.48E2,9.11E2,1.318E3,1.082E3,1.143E3,2.94E2,6.16E2,4.67E2,6.06E2,2.15E2,1.68E2,6.8E2,5.76E2,3.35E2,6.12E2,7.06E2,7.09E2,3.73E2,5.86E2,5.57E2,2.63E2,3.1E1],"tree_param":{"num_deleted":"0","num_feature":"27","num_nodes":"31","size_leaf_vector":"1"}},{"base_weights":[2.1718428E-4,-4.8755617E0,3.611258E0,-6.81547E0,-3.0989811E0,1.6937507E0,6.1600547E0,-7.6418223E0,-5.9120417E0,-4.094435E0,-2.129132E0,4.5464176E-1,2.8181245E0,5.2630444E0,8.383999E0,-2.42596E-1,-2.180489E-1,-1.9175476E-1,-1.6131511E-1,-8.1982486E-2,-1.2830916E-1,-4.9103163E-2,-8.4598206E-2,2.6311042E-2,-2.4804587E-2,7.13459E-2,1.0748845E-1,1.3661098E-1,1.79978E-1,2.3470141E-1,3.3110288E-1],"categories":[0,2,0,0],"categories_nodes":[9,10,11],"categories_segments":[0,2,3],"categories_sizes":[2,1,1],"default_left":[0,0,0,0,0,0,0,0,0,1,1,1,0,0,0,0,0,0,0,0,0,0,0,0,0,0,0,0,0,0,0],"id":42,"left_children":[1,3,5,7,9,11,13,15,17,19,21,23,25,27,29,-1,-1,-1,-1,-1,-1,-1,-1,-1,-1,-1,-1,-1,-1,-1,-1],"loss_changes":[1.3208486E5,1.0978805E4,2.1053191E4,1.0919609E3,1.6010146E3,3.4271094E3,3.6450781E3,7.141406E1,1.525586E2,1.9192578E2,2.8302612E2,6.351106E2,4.2492578E2,6.615E2,6.9998047E2,0E0,0E0,0E0,0E0,0E0,0E0,0E0,0E0,0E0,0E0,0E0,0E0,0E0,0E0,0E0,0E0],"parents":[2147483647,0,0,1,1,2,2,3,3,4,4,5,5,6,6,7,7,8,8,9,9,10,10,11,11,12,12,13,13,14,14],"right_children":[2,4,6,8,10,12,14,16,18,20,22,24,26,28,30,-1,-1,-1,-1,-1,-1,-1,-1,-1,-1,-1,-1,-1,-1,-1,-1],"split_conditions":[4.766E1,3.4086666E1,6.642333E1,2.6063334E1,4.093E1,5.7306667E1,7.730334E1,2.0623333E1,3.0433332E1,1E-45,1E-45,1E-45,6.315E1,7.1253334E1,8.6293335E1,-2.42596E-1,-2.180489E-1,-1.9175476E-1,-1.6131511E-1,-8.1982486E-2,-1.2830916E-1,-4.9103163E-2,-8.4598206E-2,2.6311042E-2,-2.4804587E-2,7.13459E-2,1.0748845E-1,1.3661098E-1,1.79978E-1,2.3470141E-1,3.3110288E-1],"split_indices":[23,23,23,23,23,23,23,23,23,5,1,1,23,23,23,0,0,0,0,0,0,0,0,0,0,0,0,0,0,0,0],"split_type":[0,0,0,0,0,0,0,0,0,1,1,1,0,0,0,0,0,0,0,0,0,0,0,0,0,0,0,0,0,0,0],"sum_hessian":[7.5E3,3.191E3,4.309E3,1.524E3,1.667E3,2.46E3,1.849E3,7.92E2,7.32E2,8.21E2,8.46E2,1.171E3,1.289E3,1.32E3,5.29E2,3.52E2,4.4E2,3.8E2,3.52E2,9.9E1,7.22E2,4.96E2,3.5E2,8.81E2,2.9E2,8.21E2,4.68E2,6.76E2,6.44E2,4.4E2,8.9E1],"tree_param":{"num_deleted":"0","num_feature":"27","num_nodes":"31","size_leaf_vector":"1"}},{"base_weights":[1.9659402E-4,-4.168078E0,3.9795237E0,-6.05782E0,-1.8398206E0,2.3478534E0,6.299812E0,-7.0257025E0,-4.714897E0,-2.6405876E0,-5.9655553E-1,1.1596451E0,3.1478784E0,5.51402E0,8.5142145E0,-2.2492811E-1,-1.891108E-1,-1.3166733E-1,-1.6464302E-1,-4.834587E-2,-8.945339E-2,-3.4410076E-3,-4.6181645E-2,4.337495E-2,-2.5003804E-3,7.735162E-2,1.1296152E-1,1.4523089E-1,1.8535736E-1,2.4430303E-1,3.801361E-1],"categories":[0,0,2,0,0],"categories_nodes":[8,9,10,11],"categories_segments":[0,1,3,4],"categories_sizes":[1,2,1,1],"default_left":[0,0,0,0,0,0,0,0,1,1,1,1,0,0,0,0,0,0,0,0,0,0,0,0,0,0,0,0,0,0,0],"id":43,"left_children":[1,3,5,7,9,11,13,15,17,19,21,23,25,27,29,-1,-1,-1,-1,-1,-1,-1,-1,-1,-1,-1,-1,-1,-1,-1,-1],"loss_changes":[1.2443511E5,1.6108949E4,1.4514801E4,2.5938828E3,1.633815E3,2.1395137E3,2.7079023E3,3.5101562E2,1.8916992E2,3.454912E2,2.9268732E2,3.236129E2,4.6334863E2,4.9315234E2,5.313008E2,0E0,0E0,0E0,0E0,0E0,0E0,0E0,0E0,0E0,0E0,0E0,0E0,0E0,0E0,0E0,0E0],"parents":[2147483647,0,0,1,1,2,2,3,3,4,4,5,5,6,6,7,7,8,8,9,9,10,10,11,11,12,12,13,13,14,14],"right_children":[2,4,6,8,10,12,14,16,18,20,22,24,26,28,30,-1,-1,-1,-1,-1,-1,-1,-1,-1,-1,-1,-1,-1,-1,-1,-1],"split_conditions":[5.1696667E1,3.856E1,6.828333E1,3.0433332E1,4.616E1,5.878E1,7.8793335E1,2.4963333E1,1E-45,1E-45,1E-45,1E-45,6.379E1,7.2526665E1,8.985667E1,-2.2492811E-1,-1.891108E-1,-1.3166733E-1,-1.6464302E-1,-4.834587E-2,-8.945339E-2,-3.4410076E-3,-4.6181645E-2,4.337495E-2,-2.5003804E-3,7.735162E-2,1.1296152E-1,1.4523089E-1,1.8535736E-1,2.4430303E-1,3.801361E-1],"split_indices":[23,23,23,23,23,23,23,23,1,5,1,1,23,23,23,0,0,0,0,0,0,0,0,0,0,0,0,0,0,0,0],"split_type":[0,0,0,0,0,0,0,0,1,1,1,1,0,0,0,0,0,0,0,0,0,0,0,0,0,0,0,0,0,0,0],"sum_hessian":[7.5E3,3.663E3,3.837E3,2.021E3,1.642E3,2.254E3,1.583E3,1.172E3,8.49E2,9.98E2,6.44E2,9.08E2,1.346E3,1.171E3,4.12E2,7.03E2,4.69E2,6.02E2,2.47E2,2.5E2,7.48E2,4.27E2,2.17E2,7.38E2,1.7E2,7.03E2,6.43E2,5.86E2,5.85E2,3.81E2,3.1E1],"tree_param":{"num_deleted":"0","num_feature":"27","num_nodes":"31","size_leaf_vector":"1"}},{"base_weights":[2.2871584E-4,-4.1064715E0,3.801271E0,-5.999007E0,-1.9857383E0,2.1413453E0,6.0055585E0,-7.018507E0,-4.940399E0,-2.9965959E0,-9.783569E-1,1.0505368E0,2.9780467E0,5.2277155E0,8.159851E0,-2.2765933E-1,-1.9906059E-1,-1.6590911E-1,-1.3216901E-1,-5.4838542E-2,-9.846194E-2,-1.4927287E-2,-5.3363767E-2,4.0139027E-2,-4.6497933E-3,9.982476E-2,6.419234E-2,1.3861147E-1,1.786571E-1,2.3026499E-1,3.3172792E-1],"categories":[0,2,0,0,0],"categories_nodes":[9,10,11,12],"categories_segments":[0,2,3,4],"categories_sizes":[2,1,1,1],"default_left":[0,0,0,0,0,0,0,0,0,1,1,1,1,0,0,0,0,0,0,0,0,0,0,0,0,0,0,0,0,0,0],"id":44,"left_children":[1,3,5,7,9,11,13,15,17,19,21,23,25,27,29,-1,-1,-1,-1,-1,-1,-1,-1,-1,-1,-1,-1,-1,-1,-1,-1],"loss_changes":[1.17104234E5,1.4460199E4,1.4241609E4,2.0201016E3,1.7298491E3,2.0262715E3,2.7594531E3,1.596836E2,2.7054297E2,2.7672607E2,3.275354E2,3.3539758E2,3.6085254E2,5.1578516E2,5.336113E2,0E0,0E0,0E0,0E0,0E0,0E0,0E0,0E0,0E0,0E0,0E0,0E0,0E0,0E0,0E0,0E0],"parents":[2147483647,0,0,1,1,2,2,3,3,4,4,5,5,6,6,7,7,8,8,9,9,10,10,11,11,12,12,13,13,14,14],"right_children":[2,4,6,8,10,12,14,16,18,20,22,24,26,28,30,-1,-1,-1,-1,-1,-1,-1,-1,-1,-1,-1,-1,-1,-1,-1,-1],"split_conditions":[5.1156666E1,3.7496666E1,6.771E1,2.8023333E1,4.4073334E1,5.878E1,7.844E1,2.115E1,3.3013332E1,1E-45,1E-45,1E-45,1E-45,7.2526665E1,8.760667E1,-2.2765933E-1,-1.9906059E-1,-1.6590911E-1,-1.3216901E-1,-5.4838542E-2,-9.846194E-2,-1.4927287E-2,-5.3363767E-2,4.0139027E-2,-4.6497933E-3,9.982476E-2,6.419234E-2,1.3861147E-1,1.786571E-1,2.3026499E-1,3.3172792E-1],"split_indices":[23,23,23,23,23,23,23,23,23,5,1,1,1,23,23,0,0,0,0,0,0,0,0,0,0,0,0,0,0,0,0],"split_type":[0,0,0,0,0,0,0,0,0,1,1,1,1,0,0,0,0,0,0,0,0,0,0,0,0,0,0,0,0,0,0],"sum_hessian":[7.5E3,3.605E3,3.895E3,1.904E3,1.701E3,2.223E3,1.672E3,9.67E2,9.37E2,8.48E2,8.53E2,9.66E2,1.257E3,1.231E3,4.41E2,3.81E2,5.86E2,4.41E2,4.96E2,1.68E2,6.8E2,5.34E2,3.19E2,7.8E2,1.86E2,8.85E2,3.72E2,6.75E2,5.56E2,3.81E2,6E1],"tree_param":{"num_deleted":"0","num_feature":"27","num_nodes":"31","size_leaf_vector":"1"}},{"base_weights":[2.3850636E-4,-3.922746E0,3.7453961E0,-5.7018094E0,-1.7308478E0,2.3266692E0,6.111542E0,-6.612901E0,-4.437677E0,-2.4877446E0,-5.5569965E-1,1.4822459E0,3.456786E0,5.4805593E0,8.5374155E0,-2.1320723E-1,-1.7987332E-1,-1.23581484E-1,-1.5579891E-1,-4.5711007E-2,-8.422061E-2,-3.05337E-3,-4.3316267E-2,2.0244863E-2,5.684589E-2,1.147613E-1,8.237999E-2,1.4490098E-1,1.8464682E-1,2.4261668E-1,3.5944763E-1],"categories":[0,0,2,0,0],"categories_nodes":[8,9,10,12],"categories_segments":[0,1,3,4],"categories_sizes":[1,2,1,1],"default_left":[0,0,0,0,0,0,0,0,1,1,1,0,1,0,0,0,0,0,0,0,0,0,0,0,0,0,0,0,0,0,0],"id":45,"left_children":[1,3,5,7,9,11,13,15,17,19,21,23,25,27,29,-1,-1,-1,-1,-1,-1,-1,-1,-1,-1,-1,-1,-1,-1,-1,-1],"loss_changes":[1.10220836E5,1.427725E4,1.2868773E4,2.2983672E3,1.4597056E3,2.2856494E3,2.1529297E3,3.136875E2,1.8210938E2,3.0309863E2,2.5973758E2,4.5688428E2,2.5763867E2,4.7101172E2,3.585078E2,0E0,0E0,0E0,0E0,0E0,0E0,0E0,0E0,0E0,0E0,0E0,0E0,0E0,0E0,0E0,0E0],"parents":[2147483647,0,0,1,1,2,2,3,3,4,4,5,5,6,6,7,7,8,8,9,9,10,10,11,11,12,12,13,13,14,14],"right_children":[2,4,6,8,10,12,14,16,18,20,22,24,26,28,30,-1,-1,-1,-1,-1,-1,-1,-1,-1,-1,-1,-1,-1,-1,-1,-1],"split_conditions":[5.1696667E1,3.856E1,6.93E1,3.0433332E1,4.616E1,6.2263332E1,8.09E1,2.4293333E1,1E-45,1E-45,1E-45,5.552667E1,1E-45,7.381E1,8.985667E1,-2.1320723E-1,-1.7987332E-1,-1.23581484E-1,-1.5579891E-1,-4.5711007E-2,-8.422061E-2,-3.05337E-3,-4.3316267E-2,2.0244863E-2,5.684589E-2,1.147613E-1,8.237999E-2,1.4490098E-1,1.8464682E-1,2.4261668E-1,3.5944763E-1],"split_indices":[23,23,23,23,23,23,23,23,1,5,1,23,1,23,23,0,0,0,0,0,0,0,0,0,0,0,0,0,0,0,0],"split_type":[0,0,0,0,0,0,0,0,1,1,1,0,1,0,0,0,0,0,0,0,0,0,0,0,0,0,0,0,0,0,0],"sum_hessian":[7.5E3,3.663E3,3.837E3,2.021E3,1.642E3,2.4E3,1.437E3,1.172E3,8.49E2,9.98E2,6.44E2,1.375E3,1.025E3,1.143E3,2.94E2,6.45E2,5.27E2,6.02E2,2.47E2,2.5E2,7.48E2,4.27E2,2.17E2,4.66E2,9.09E2,6.72E2,3.53E2,5.86E2,5.57E2,2.63E2,3.1E1],"tree_param":{"num_deleted":"0","num_feature":"27","num_nodes":"31","size_leaf_vector":"1"}},{"base_weights":[2.784732E-4,-4.15233E0,3.330968E0,-5.857575E0,-2.3778617E0,1.6250142E0,5.4629383E0,-6.6339636E0,-4.8955507E0,-3.2919915E0,-1.5201656E0,6.605133E-1,2.619332E0,4.666012E0,7.438744E0,-2.1446797E-1,-1.8808062E-1,-1.3850896E-1,-1.763494E-1,-2.8652765E-2,-1.04050964E-1,-5.5436328E-2,-1.9904125E-2,3.062731E-2,-1.7276583E-2,6.677244E-2,9.529907E-2,1.21263325E-1,1.594043E-1,2.079145E-1,2.9536372E-1],"categories":[0,0,2,3,0],"categories_nodes":[8,9,11],"categories_segments":[0,1,4],"categories_sizes":[1,3,1],"default_left":[0,0,0,0,0,0,0,0,1,1,0,1,0,0,0,0,0,0,0,0,0,0,0,0,0,0,0,0,0,0,0],"id":46,"left_children":[1,3,5,7,9,11,13,15,17,19,21,23,25,27,29,-1,-1,-1,-1,-1,-1,-1,-1,-1,-1,-1,-1,-1,-1,-1,-1],"loss_changes":[1.0376045E5,1.0088738E4,1.5131418E4,1.2376016E3,1.2787812E3,2.2171147E3,2.877043E3,1.3014844E2,1.8098242E2,3.2268164E2,2.3631763E2,5.246519E2,2.4222412E2,5.1120898E2,5.784043E2,0E0,0E0,0E0,0E0,0E0,0E0,0E0,0E0,0E0,0E0,0E0,0E0,0E0,0E0,0E0,0E0],"parents":[2147483647,0,0,1,1,2,2,3,3,4,4,5,5,6,6,7,7,8,8,9,9,10,10,11,11,12,12,13,13,14,14],"right_children":[2,4,6,8,10,12,14,16,18,20,22,24,26,28,30,-1,-1,-1,-1,-1,-1,-1,-1,-1,-1,-1,-1,-1,-1,-1,-1],"split_conditions":[4.8886665E1,3.58E1,6.642333E1,2.773E1,4.2073334E1,5.8376667E1,7.730334E1,2.115E1,1E-45,1E-45,4.6866665E1,1E-45,6.315E1,7.1253334E1,8.6293335E1,-2.1446797E-1,-1.8808062E-1,-1.3850896E-1,-1.763494E-1,-2.8652765E-2,-1.04050964E-1,-5.5436328E-2,-1.9904125E-2,3.062731E-2,-1.7276583E-2,6.677244E-2,9.529907E-2,1.21263325E-1,1.594043E-1,2.079145E-1,2.9536372E-1],"split_indices":[23,23,23,23,23,23,23,23,1,5,23,1,23,23,23,0,0,0,0,0,0,0,0,0,0,0,0,0,0,0,0],"split_type":[0,0,0,0,0,0,0,0,1,1,0,1,0,0,0,0,0,0,0,0,0,0,0,0,0,0,0,0,0,0,0],"sum_hessian":[7.5E3,3.338E3,4.162E3,1.701E3,1.637E3,2.313E3,1.849E3,9.38E2,7.63E2,7.91E2,8.46E2,1.175E3,1.138E3,1.32E3,5.29E2,3.81E2,5.57E2,5.99E2,1.64E2,5.6E1,7.35E2,6.11E2,2.35E2,9.1E2,2.65E2,6.7E2,4.68E2,6.76E2,6.44E2,4.4E2,8.9E1],"tree_param":{"num_deleted":"0","num_feature":"27","num_nodes":"31","size_leaf_vector":"1"}},{"base_weights":[2.7324472E-4,-3.6933837E0,3.5265002E0,-5.449126E0,-1.7252463E0,2.0797355E0,5.583841E0,-6.22725E0,-4.247176E0,-2.7051759E0,-8.443168E-1,1.0306921E0,2.7860465E0,5.015525E0,8.049751E0,-1.9939466E-1,-1.6757466E-1,-1.1783176E-1,-1.5261911E-1,-6.6860124E-2,-1.0026119E-1,-1.2160218E-2,-4.78603E-2,3.873462E-2,-3.0111684E-3,6.801804E-2,1.004603E-1,1.3254562E-1,1.7373092E-1,2.2857557E-1,3.4041706E-1],"categories":[0,0,0,0],"categories_nodes":[8,9,10,11],"categories_segments":[0,1,2,3],"categories_sizes":[1,1,1,1],"default_left":[0,0,0,0,0,0,0,0,1,1,1,1,0,0,0,0,0,0,0,0,0,0,0,0,0,0,0,0,0,0,0],"id":47,"left_children":[1,3,5,7,9,11,13,15,17,19,21,23,25,27,29,-1,-1,-1,-1,-1,-1,-1,-1,-1,-1,-1,-1,-1,-1,-1,-1],"loss_changes":[9.771108E4,1.265098E4,1.1411379E4,1.7831797E3,1.4899185E3,1.6675908E3,2.1781602E3,2.7708984E2,1.8415918E2,2.4023193E2,2.9982397E2,2.680393E2,3.850088E2,5.709707E2,3.3048242E2,0E0,0E0,0E0,0E0,0E0,0E0,0E0,0E0,0E0,0E0,0E0,0E0,0E0,0E0,0E0,0E0],"parents":[2147483647,0,0,1,1,2,2,3,3,4,4,5,5,6,6,7,7,8,8,9,9,10,10,11,11,12,12,13,13,14,14],"right_children":[2,4,6,8,10,12,14,16,18,20,22,24,26,28,30,-1,-1,-1,-1,-1,-1,-1,-1,-1,-1,-1,-1,-1,-1,-1,-1],"split_conditions":[5.1696667E1,3.781E1,6.828333E1,3.0433332E1,4.4073334E1,5.878E1,8.09E1,2.4963333E1,1E-45,1E-45,1E-45,1E-45,6.379E1,7.381E1,8.985667E1,-1.9939466E-1,-1.6757466E-1,-1.1783176E-1,-1.5261911E-1,-6.6860124E-2,-1.0026119E-1,-1.2160218E-2,-4.78603E-2,3.873462E-2,-3.0111684E-3,6.801804E-2,1.004603E-1,1.3254562E-1,1.7373092E-1,2.2857557E-1,3.4041706E-1],"split_indices":[23,23,23,23,23,23,23,23,1,1,1,1,23,23,23,0,0,0,0,0,0,0,0,0,0,0,0,0,0,0,0],"split_type":[0,0,0,0,0,0,0,0,1,1,1,1,0,0,0,0,0,0,0,0,0,0,0,0,0,0,0,0,0,0,0],"sum_hessian":[7.5E3,3.663E3,3.837E3,1.935E3,1.728E3,2.254E3,1.583E3,1.172E3,7.63E2,8.17E2,9.11E2,9.08E2,1.346E3,1.289E3,2.94E2,7.03E2,4.69E2,5.57E2,2.06E2,4.7E2,3.47E2,5.76E2,3.35E2,7.38E2,1.7E2,7.03E2,6.43E2,7.32E2,5.57E2,2.63E2,3.1E1],"tree_param":{"num_deleted":"0","num_feature":"27","num_nodes":"31","size_leaf_vector":"1"}},{"base_weights":[2.9244914E-4,-4.0686245E0,3.0137687E0,